{"learner":{"attributes":{"scikit_learn":"{\"_estimator_type\": \"classifier\"}"},"feature_names":["skill_overlap_ratio","experience_gap","degree_match","tfidf_similarity"],"feature_types":["float","float","float","float"],"gradient_booster":{"model":{"cats":{"enc":[],"feature_segments":[],"sorted_idx":[]},"gbtree_model_param":{"num_parallel_tree":"1","num_trees":"100"},"iteration_indptr":[0,1,2,3,4,5,6,7,8,9,10,11,12,13,14,15,16,17,18,19,20,21,22,23,24,25,26,27,28,29,30,31,32,33,34,35,36,37,38,39,40,41,42,43,44,45,46,47,48,49,50,51,52,53,54,55,56,57,58,59,60,61,62,63,64,65,66,67,68,69,70,71,72,73,74,75,76,77,78,79,80,81,82,83,84,85,86,87,88,89,90,91,92,93,94,95,96,97,98,99,100],"tree_info":[0,0,0,0,0,0,0,0,0,0,0,0,0,0,0,0,0,0,0,0,0,0,0,0,0,0,0,0,0,0,0,0,0,0,0,0,0,0,0,0,0,0,0,0,0,0,0,0,0,0,0,0,0,0,0,0,0,0,0,0,0,0,0,0,0,0,0,0,0,0,0,0,0,0,0,0,0,0,0,0,0,0,0,0,0,0,0,0,0,0,0,0,0,0,0,0,0,0,0,0],"trees":[{"base_weights":[6.3023182E-9,-7.807565E-1,2.2939012E0,-9.724221E-1,2.8729528E-1,1.1918267E0,2.8134384E0,-1.134445E0,-7.8744537E-1,-5.9107076E-3,2.1994734E0,9.958008E-1,1.9136776E0,2.2522428E0,1.5339264E-1,-6.2144864E-2,-4.4699367E-2,-4.6849854E-2,-2.1776302E-2,-5.3417943E-3,6.068764E-2,1.3663137E-1,7.094449E-2,2.9417574E-2,7.1500115E-2,2.5031125E-2,9.8062016E-2,9.23299E-2,1.2684438E-1],"categories":[],"categories_nodes":[],"categories_segments":[],"categories_sizes":[],"default_left":[0,0,0,0,0,0,0,0,0,0,0,0,0,0,0,0,0,0,0,0,0,0,0,0,0,0,0,0,0],"id":0,"left_children":[1,3,5,7,9,11,13,15,17,19,21,23,25,27,-1,-1,-1,-1,-1,-1,-1,-1,-1,-1,-1,-1,-1,-1,-1],"loss_changes":[4.8122715E3,4.1064795E2,3.8731348E2,5.005249E1,1.7145128E2,2.9271942E1,5.919165E1,2.2460693E1,4.153705E1,3.2887936E1,1.3042526E1,3.0183075E1,2.1078033E0,1.2424561E1,0E0,0E0,0E0,0E0,0E0,0E0,0E0,0E0,0E0,0E0,0E0,0E0,0E0,0E0,0E0],"parents":[2147483647,0,0,1,1,2,2,3,3,4,4,5,5,6,6,7,7,8,8,9,9,10,10,11,11,12,12,13,13],"right_children":[2,4,6,8,10,12,14,16,18,20,22,24,26,28,-1,-1,-1,-1,-1,-1,-1,-1,-1,-1,-1,-1,-1,-1,-1],"split_conditions":[7.4308544E-2,4.83043E-2,1.0589362E-1,1.4285715E-1,6.666667E-1,6.666667E-1,1.4025117E-1,1.82406E-2,1E0,6E0,-5E0,8.824452E-2,1E0,5E-1,1.5339264E-1,-6.2144864E-2,-4.4699367E-2,-4.6849854E-2,-2.1776302E-2,-5.3417943E-3,6.068764E-2,1.3663137E-1,7.094449E-2,2.9417574E-2,7.1500115E-2,2.5031125E-2,9.8062016E-2,9.23299E-2,1.2684438E-1],"split_indices":[3,3,3,0,0,0,3,3,1,1,1,3,2,0,0,0,0,0,0,0,0,0,0,0,0,0,0,0,0],"split_type":[0,0,0,0,0,0,0,0,0,0,0,0,0,0,0,0,0,0,0,0,0,0,0,0,0,0,0,0,0],"sum_hessian":[2.6849512E3,2.0036461E3,6.813051E2,1.6988679E3,3.0477826E2,2.1933405E2,4.6197104E2,9.028877E2,7.959802E2,2.651223E2,3.9655922E1,1.743634E2,4.4970634E1,1.4717662E2,3.1479443E2,6.193683E2,2.835194E2,5.5743146E2,2.3854877E2,2.4570319E2,1.9419138E1,2.2076492E1,1.757943E1,9.116774E1,8.319567E1,1.8397077E0,4.3130924E1,6.3776535E1,8.3400085E1],"tree_param":{"num_deleted":"0","num_feature":"4","num_nodes":"29","size_leaf_vector":"1"}},{"base_weights":[-9.253066E-4,-7.5499845E-1,2.079859E0,-9.4426924E-1,2.7189147E-1,1.0275114E0,2.495811E0,-1.10566E0,-7.6143265E-1,-5.470919E-3,2.0053535E0,8.4709746E-1,1.6580738E0,2.019012E0,2.73951E0,-6.071794E-2,-4.332716E-2,-1.0390234E-2,-4.283783E-2,-5.087665E-3,5.6398492E-2,1.23308145E-1,6.5692686E-2,2.7613198E-2,6.185357E-2,2.4050575E-2,8.4913276E-2,8.217281E-2,1.1538859E-1,1.2956333E-1,1.4577036E-1],"categories":[],"categories_nodes":[],"categories_segments":[],"categories_sizes":[],"default_left":[0,0,0,0,0,0,0,0,0,0,0,0,0,0,0,0,0,0,0,0,0,0,0,0,0,0,0,0,0,0,0],"id":1,"left_children":[1,3,5,7,9,11,13,15,17,19,21,23,25,27,29,-1,-1,-1,-1,-1,-1,-1,-1,-1,-1,-1,-1,-1,-1,-1,-1],"loss_changes":[4.212654E3,3.8327393E2,3.1004346E2,4.8265137E1,1.4784128E2,2.1804535E1,5.386206E1,2.1865112E1,4.1168488E1,2.9149544E1,1.0274811E1,1.7790527E1,1.2808151E0,1.5368713E1,1.192627E0,0E0,0E0,0E0,0E0,0E0,0E0,0E0,0E0,0E0,0E0,0E0,0E0,0E0,0E0,0E0,0E0],"parents":[2147483647,0,0,1,1,2,2,3,3,4,4,5,5,6,6,7,7,8,8,9,9,10,10,11,11,12,12,13,13,14,14],"right_children":[2,4,6,8,10,12,14,16,18,20,22,24,26,28,30,-1,-1,-1,-1,-1,-1,-1,-1,-1,-1,-1,-1,-1,-1,-1,-1],"split_conditions":[7.4308544E-2,4.83043E-2,1.0268684E-1,1.4285715E-1,6.666667E-1,6.666667E-1,1.4025117E-1,1.82406E-2,1E0,6E0,-5E0,8.824452E-2,1E0,5E-1,2.0763007E-1,-6.071794E-2,-4.332716E-2,-1.0390234E-2,-4.283783E-2,-5.087665E-3,5.6398492E-2,1.23308145E-1,6.5692686E-2,2.7613198E-2,6.185357E-2,2.4050575E-2,8.4913276E-2,8.217281E-2,1.1538859E-1,1.2956333E-1,1.4577036E-1],"split_indices":[3,3,3,0,0,0,3,3,2,1,1,3,2,0,3,0,0,0,0,0,0,0,0,0,0,0,0,0,0,0,0],"split_type":[0,0,0,0,0,0,0,0,0,0,0,0,0,0,0,0,0,0,0,0,0,0,0,0,0,0,0,0,0,0,0],"sum_hessian":[2.6828196E3,1.9696561E3,7.131633E2,1.663187E3,3.0646915E2,2.0301393E2,5.101494E2,8.807223E2,7.8246466E2,2.650558E2,4.1413372E1,1.596725E2,4.3341427E1,1.7569174E2,3.3445767E2,6.026762E2,2.780461E2,1.154026E2,6.670621E2,2.4514194E2,1.9913841E1,2.3312038E1,1.8101334E1,9.230383E1,6.736867E1,1.8592387E0,4.148219E1,7.9276985E1,9.641475E1,1.9003278E2,1.4442491E2],"tree_param":{"num_deleted":"0","num_feature":"4","num_nodes":"31","size_leaf_vector":"1"}},{"base_weights":[-1.547812E-3,-8.4377867E-1,1.6618307E0,-9.98972E-1,-4.2547095E-1,7.7310187E-1,2.2715726E0,-1.135012E0,-8.1232226E-1,-4.9083346E-1,6.2698936E-1,5.3347874E-1,1.7437897E0,1.8498408E0,2.4851534E0,-6.274046E-2,-4.9594134E-2,-2.1789232E-2,-5.036673E-2,-3.7011072E-2,-5.3636264E-3,-2.6874045E-2,7.1620345E-2,1.7092673E-2,5.7408687E-2,9.913694E-2,6.4655825E-2,9.3692765E-2,-4.192419E-2,1.1779534E-1,1.3189167E-1],"categories":[],"categories_nodes":[],"categories_segments":[],"categories_sizes":[],"default_left":[0,0,0,0,0,0,0,0,0,0,0,0,0,0,0,0,0,0,0,0,0,0,0,0,0,0,0,0,0,0,0],"id":2,"left_children":[1,3,5,7,9,11,13,15,17,19,21,23,25,27,29,-1,-1,-1,-1,-1,-1,-1,-1,-1,-1,-1,-1,-1,-1,-1,-1],"loss_changes":[3.7498962E3,1.1493176E2,4.8580615E2,3.196936E1,3.3506226E1,8.457944E1,4.3421875E1,1.1559265E1,3.9918823E1,4.343792E1,2.7647747E1,3.4507004E1,5.2266235E0,1.3394043E1,7.114258E-1,0E0,0E0,0E0,0E0,0E0,0E0,0E0,0E0,0E0,0E0,0E0,0E0,0E0,0E0,0E0,0E0],"parents":[2147483647,0,0,1,1,2,2,3,3,4,4,5,5,6,6,7,7,8,8,9,9,10,10,11,11,12,12,13,13,14,14],"right_children":[2,4,6,8,10,12,14,16,18,20,22,24,26,28,30,-1,-1,-1,-1,-1,-1,-1,-1,-1,-1,-1,-1,-1,-1,-1,-1],"split_conditions":[5.8734726E-2,3.023628E-2,1.0268684E-1,1.4285715E-1,6.666667E-1,6.666667E-1,1.4025117E-1,2E0,2E-1,2E0,4.83043E-2,8.824452E-2,8.3119035E-2,8E0,2.0763007E-1,-6.274046E-2,-4.9594134E-2,-2.1789232E-2,-5.036673E-2,-3.7011072E-2,-5.3636264E-3,-2.6874045E-2,7.1620345E-2,1.7092673E-2,5.7408687E-2,9.913694E-2,6.4655825E-2,9.3692765E-2,-4.192419E-2,1.1779534E-1,1.3189167E-1],"split_indices":[3,3,3,0,0,0,3,1,0,1,3,3,3,1,3,0,0,0,0,0,0,0,0,0,0,0,0,0,0,0,0],"split_type":[0,0,0,0,0,0,0,0,0,0,0,0,0,0,0,0,0,0,0,0,0,0,0,0,0,0,0,0,0,0,0],"sum_hessian":[2.6746824E3,1.7759468E3,8.9873566E2,1.2943507E3,4.81596E2,3.666269E2,5.3210876E2,7.457377E2,5.486131E2,4.5393805E2,2.7657951E1,2.9528314E2,7.134374E1,1.8213327E2,3.499755E2,4.0172928E2,3.440084E2,1.8828995E2,3.6032315E2,2.745186E2,1.7941948E2,1.1444374E1,1.6213575E1,2.2629422E2,6.898892E1,4.4402054E1,2.6941689E1,1.8082098E2,1.312287E0,1.9843056E2,1.5154494E2],"tree_param":{"num_deleted":"0","num_feature":"4","num_nodes":"31","size_leaf_vector":"1"}},{"base_weights":[-2.1275473E-3,-8.1846577E-1,1.5394434E0,-9.726691E-1,-4.0849635E-1,7.246654E-1,2.0882149E0,-1.1091567E0,-7.869935E-1,-5.800486E-1,-2.3178454E-2,5.0171834E-1,1.612019E0,1.7055943E0,2.281219E0,-6.1497927E-2,-4.8288506E-2,-2.0918993E-2,-4.9025353E-2,-4.002804E-2,-1.1466215E-2,-1.0224154E-2,6.6766165E-2,1.6124746E-2,5.345385E-2,9.1291584E-2,6.0223486E-2,6.899209E-2,9.778285E-2,1.0825264E-1,1.20914064E-1],"categories":[],"categories_nodes":[],"categories_segments":[],"categories_sizes":[],"default_left":[0,0,0,0,0,0,0,0,0,0,0,0,0,0,0,0,0,0,0,0,0,0,0,0,0,0,0,0,0,0,0],"id":3,"left_children":[1,3,5,7,9,11,13,15,17,19,21,23,25,27,29,-1,-1,-1,-1,-1,-1,-1,-1,-1,-1,-1,-1,-1,-1,-1,-1],"loss_changes":[3.352409E3,1.0970715E2,4.108667E2,3.1182251E1,3.1567612E1,7.292627E1,3.676758E1,1.1397095E1,3.8060577E1,2.5379898E1,3.6780823E1,3.009182E1,4.2830048E0,1.2661987E1,5.440674E-1,0E0,0E0,0E0,0E0,0E0,0E0,0E0,0E0,0E0,0E0,0E0,0E0,0E0,0E0,0E0,0E0],"parents":[2147483647,0,0,1,1,2,2,3,3,4,4,5,5,6,6,7,7,8,8,9,9,10,10,11,11,12,12,13,13,14,14],"right_children":[2,4,6,8,10,12,14,16,18,20,22,24,26,28,30,-1,-1,-1,-1,-1,-1,-1,-1,-1,-1,-1,-1,-1,-1,-1,-1],"split_conditions":[5.8734726E-2,3.023628E-2,1.0268684E-1,1.4285715E-1,4.83043E-2,6.666667E-1,1.4025117E-1,2E0,2E-1,2E0,6.666667E-1,8.824452E-2,8.3119035E-2,5E-1,2.0763007E-1,-6.1497927E-2,-4.8288506E-2,-2.0918993E-2,-4.9025353E-2,-4.002804E-2,-1.1466215E-2,-1.0224154E-2,6.6766165E-2,1.6124746E-2,5.345385E-2,9.1291584E-2,6.0223486E-2,6.899209E-2,9.778285E-2,1.0825264E-1,1.20914064E-1],"split_indices":[3,3,3,0,3,0,3,1,0,1,0,3,3,0,3,0,0,0,0,0,0,0,0,0,0,0,0,0,0,0,0],"split_type":[0,0,0,0,0,0,0,0,0,0,0,0,0,0,0,0,0,0,0,0,0,0,0,0,0,0,0,0,0,0,0],"sum_hessian":[2.6619321E3,1.7406439E3,9.212882E2,1.2638824E3,4.7676144E2,3.7171384E2,5.4957434E2,7.255597E2,5.383228E2,3.295382E2,1.4722324E2,2.9832523E2,7.3388626E1,1.8756795E2,3.620064E2,3.8968027E2,3.3587946E2,1.8640733E2,3.5191547E2,2.0154039E2,1.279978E2,1.3063788E2,1.6585356E1,2.2790158E2,7.042363E1,4.5852818E1,2.7535809E1,8.428686E1,1.0328109E2,2.0503024E2,1.5697617E2],"tree_param":{"num_deleted":"0","num_feature":"4","num_nodes":"31","size_leaf_vector":"1"}},{"base_weights":[-2.5188865E-3,-7.940913E-1,1.4343414E0,-9.4739294E-1,-3.9220104E-1,6.805286E-1,1.9359174E0,-1.0845171E0,-7.6252276E-1,-5.591198E-1,-2.1770053E-2,4.7233826E-1,1.4980565E0,1.5831482E0,2.1136935E0,-6.0331613E-2,-4.7030177E-2,-2.007891E-2,-4.773496E-2,-3.879535E-2,-1.0956067E-2,-9.761299E-3,6.2454768E-2,1.5219564E-2,4.9907774E-2,1.6283978E-2,7.759264E-2,8.0222234E-2,-4.2567294E-2,1.0066842E-1,1.1250746E-1],"categories":[],"categories_nodes":[],"categories_segments":[],"categories_sizes":[],"default_left":[0,0,0,0,0,0,0,0,0,0,0,0,0,0,0,0,0,0,0,0,0,0,0,0,0,0,0,0,0,0,0],"id":4,"left_children":[1,3,5,7,9,11,13,15,17,19,21,23,25,27,29,-1,-1,-1,-1,-1,-1,-1,-1,-1,-1,-1,-1,-1,-1,-1,-1],"loss_changes":[3.0105198E3,1.04777466E2,3.5417322E2,3.0473267E1,2.923182E1,6.3491455E1,3.202539E1,1.1281555E1,3.6323364E1,2.3858719E1,3.2859497E1,2.637407E1,4.294113E0,1.1371033E1,5.628662E-1,0E0,0E0,0E0,0E0,0E0,0E0,0E0,0E0,0E0,0E0,0E0,0E0,0E0,0E0,0E0,0E0],"parents":[2147483647,0,0,1,1,2,2,3,3,4,4,5,5,6,6,7,7,8,8,9,9,10,10,11,11,12,12,13,13,14,14],"right_children":[2,4,6,8,10,12,14,16,18,20,22,24,26,28,30,-1,-1,-1,-1,-1,-1,-1,-1,-1,-1,-1,-1,-1,-1,-1,-1],"split_conditions":[5.8734726E-2,3.023628E-2,1.0268684E-1,1.4285715E-1,4.83043E-2,6.666667E-1,1.4025117E-1,2E0,2E-1,2E0,6.666667E-1,8.824452E-2,1E0,8E0,2.1220084E-1,-6.0331613E-2,-4.7030177E-2,-2.007891E-2,-4.773496E-2,-3.879535E-2,-1.0956067E-2,-9.761299E-3,6.2454768E-2,1.5219564E-2,4.9907774E-2,1.6283978E-2,7.759264E-2,8.0222234E-2,-4.2567294E-2,1.0066842E-1,1.1250746E-1],"split_indices":[3,3,3,0,3,0,3,1,0,1,0,3,2,1,3,0,0,0,0,0,0,0,0,0,0,0,0,0,0,0,0],"split_type":[0,0,0,0,0,0,0,0,0,0,0,0,0,0,0,0,0,0,0,0,0,0,0,0,0,0,0,0,0,0,0],"sum_hessian":[2.6448909E3,1.7056748E3,9.3921606E2,1.233715E3,4.7195984E2,3.7619446E2,5.630216E2,7.055324E2,5.2818256E2,3.2500223E2,1.4695761E2,3.0109567E2,7.509878E1,1.9197733E2,3.710443E2,3.7767725E2,3.278552E2,1.8458531E2,3.4359726E2,1.9767816E2,1.2732406E2,1.3005347E2,1.6904154E1,2.2940288E2,7.16928E1,3.6043055E0,7.149447E1,1.9065051E2,1.3268118E0,2.2291066E2,1.4813365E2],"tree_param":{"num_deleted":"0","num_feature":"4","num_nodes":"31","size_leaf_vector":"1"}},{"base_weights":[-2.8730584E-3,-7.7055365E-1,1.3423135E0,-9.2303073E-1,-3.7652943E-1,6.399482E-1,1.8062574E0,-1.0609503E0,-7.3883796E-1,-5.388778E-1,-2.044208E-2,4.4508862E-1,1.3972427E0,1.5423434E0,1.00888565E-1,-5.923282E-2,-4.581408E-2,-1.9267993E-2,-4.6490032E-2,-3.760014E-2,-1.0466649E-2,-9.31786E-3,5.859325E-2,2.4938593E-3,3.1974353E-2,7.953314E-2,5.1553484E-2,7.787986E-2,-4.1713297E-2],"categories":[],"categories_nodes":[],"categories_segments":[],"categories_sizes":[],"default_left":[0,0,0,0,0,0,0,0,0,0,0,0,0,0,0,0,0,0,0,0,0,0,0,0,0,0,0,0,0],"id":5,"left_children":[1,3,5,7,9,11,13,15,17,19,21,23,25,27,-1,-1,-1,-1,-1,-1,-1,-1,-1,-1,-1,-1,-1,-1,-1],"loss_changes":[2.7123044E3,1.00117004E2,3.0980994E2,2.9826416E1,2.7057968E1,5.562393E1,2.8937134E1,1.1204407E1,3.4689575E1,2.2427849E1,2.9430468E1,2.3371605E1,3.8514862E0,1.0713257E1,0E0,0E0,0E0,0E0,0E0,0E0,0E0,0E0,0E0,0E0,0E0,0E0,0E0,0E0,0E0],"parents":[2147483647,0,0,1,1,2,2,3,3,4,4,5,5,6,6,7,7,8,8,9,9,10,10,11,11,12,12,13,13],"right_children":[2,4,6,8,10,12,14,16,18,20,22,24,26,28,-1,-1,-1,-1,-1,-1,-1,-1,-1,-1,-1,-1,-1,-1,-1],"split_conditions":[5.8734726E-2,3.023628E-2,1.0268684E-1,1.4285715E-1,4.83043E-2,6.666667E-1,1.5875359E-1,2E0,2E-1,2E0,6.666667E-1,2E-1,8.3119035E-2,8E0,1.00888565E-1,-5.923282E-2,-4.581408E-2,-1.9267993E-2,-4.6490032E-2,-3.760014E-2,-1.0466649E-2,-9.31786E-3,5.859325E-2,2.4938593E-3,3.1974353E-2,7.953314E-2,5.1553484E-2,7.787986E-2,-4.1713297E-2],"split_indices":[3,3,3,0,3,0,3,1,0,1,0,0,3,1,0,0,0,0,0,0,0,0,0,0,0,0,0,0,0],"split_type":[0,0,0,0,0,0,0,0,0,0,0,0,0,0,0,0,0,0,0,0,0,0,0,0,0,0,0,0,0],"sum_hessian":[2.6244858E3,1.6711879E3,9.532981E2,1.2039486E3,4.6723914E2,3.8015704E2,5.7314105E2,6.857293E2,5.182193E2,3.2057047E2,1.466687E2,3.036202E2,7.6536835E1,2.5867477E2,3.144663E2,3.657705E2,3.1995883E2,1.8282405E2,3.3539526E2,1.9389296E2,1.2667748E2,1.2949286E2,1.7175838E1,1.0051995E2,2.0310025E2,4.789415E1,2.8642685E1,2.5736752E2,1.307246E0],"tree_param":{"num_deleted":"0","num_feature":"4","num_nodes":"29","size_leaf_vector":"1"}},{"base_weights":[-3.1764142E-3,-7.477765E-1,1.260692E0,-8.9948404E-1,-3.614489E-1,6.024226E-1,1.6942047E0,-1.0383306E0,-7.1587694E-1,-5.192877E-1,-1.9189617E-2,4.1941056E-1,1.3089162E0,1.3768923E0,1.8553215E0,-5.819387E-2,-4.463582E-2,-1.8485311E-2,-4.528575E-2,-3.6439616E-2,-9.997242E-3,-8.893125E-3,5.5109054E-2,1.317689E-2,4.5199774E-2,1.2571484E-2,6.7883626E-2,5.4337125E-2,8.010337E-2,8.81814E-2,9.9060915E-2],"categories":[],"categories_nodes":[],"categories_segments":[],"categories_sizes":[],"default_left":[0,0,0,0,0,0,0,0,0,0,0,0,0,0,0,0,0,0,0,0,0,0,0,0,0,0,0,0,0,0,0],"id":6,"left_children":[1,3,5,7,9,11,13,15,17,19,21,23,25,27,29,-1,-1,-1,-1,-1,-1,-1,-1,-1,-1,-1,-1,-1,-1,-1,-1],"loss_changes":[2.450058E3,9.569232E1,2.7441174E2,2.9228271E1,2.5035103E1,4.920392E1,2.716858E1,1.1158569E1,3.3144684E1,2.1079453E1,2.6416151E1,2.2957935E1,3.7162933E0,1.1304138E1,9.2407227E-1,0E0,0E0,0E0,0E0,0E0,0E0,0E0,0E0,0E0,0E0,0E0,0E0,0E0,0E0,0E0,0E0],"parents":[2147483647,0,0,1,1,2,2,3,3,4,4,5,5,6,6,7,7,8,8,9,9,10,10,11,11,12,12,13,13,14,14],"right_children":[2,4,6,8,10,12,14,16,18,20,22,24,26,28,30,-1,-1,-1,-1,-1,-1,-1,-1,-1,-1,-1,-1,-1,-1,-1,-1],"split_conditions":[5.8734726E-2,3.023628E-2,1.0268684E-1,1.4285715E-1,4.83043E-2,6.666667E-1,1.4025117E-1,2E0,2E-1,2E0,6.666667E-1,8.824452E-2,1E0,5E-1,2.1220084E-1,-5.819387E-2,-4.463582E-2,-1.8485311E-2,-4.528575E-2,-3.6439616E-2,-9.997242E-3,-8.893125E-3,5.5109054E-2,1.317689E-2,4.5199774E-2,1.2571484E-2,6.7883626E-2,5.4337125E-2,8.010337E-2,8.81814E-2,9.9060915E-2],"split_indices":[3,3,3,0,3,0,3,1,0,1,0,3,2,0,3,0,0,0,0,0,0,0,0,0,0,0,0,0,0,0,0],"split_type":[0,0,0,0,0,0,0,0,0,0,0,0,0,0,0,0,0,0,0,0,0,0,0,0,0,0,0,0,0,0,0],"sum_hessian":[2.6014614E3,1.6372778E3,9.6418353E2,1.1746676E3,4.6261026E2,3.8379605E2,5.803875E2,6.6621234E2,5.084553E2,3.162492E2,1.4636105E2,3.060974E2,7.769865E1,1.9866731E2,3.8172018E2,3.5400272E2,3.1220963E2,1.8112334E2,3.2733194E2,1.9019186E2,1.26057335E2,1.2895538E2,1.7405674E1,2.327684E2,7.332901E1,3.6958265E0,7.4002815E1,8.935496E1,1.09312355E2,2.2954536E2,1.521748E2],"tree_param":{"num_deleted":"0","num_feature":"4","num_nodes":"31","size_leaf_vector":"1"}},{"base_weights":[-3.3368203E-3,-7.25694E-1,1.1884444E0,-8.7666756E-1,-3.4693027E-1,5.679746E-1,1.597115E0,-1.0165479E0,-6.9358635E-1,-5.2852494E-1,-6.572334E-2,2.9904586E-1,9.925102E-1,1.294027E0,1.7518514E0,-5.7208043E-2,-4.349157E-2,-1.7729996E-2,-4.4117954E-2,-3.1985205E-2,3.140193E-2,-1.3574152E-2,2.1937603E-2,1.3522488E-4,3.151085E-2,4.0418223E-2,6.953471E-2,5.1093753E-2,7.525932E-2,8.285821E-2,9.327029E-2],"categories":[],"categories_nodes":[],"categories_segments":[],"categories_sizes":[],"default_left":[0,0,0,0,0,0,0,0,0,0,0,0,0,0,0,0,0,0,0,0,0,0,0,0,0,0,0,0,0,0,0],"id":7,"left_children":[1,3,5,7,9,11,13,15,17,19,21,23,25,27,29,-1,-1,-1,-1,-1,-1,-1,-1,-1,-1,-1,-1,-1,-1,-1,-1],"loss_changes":[2.2192568E3,9.147644E1,2.4577185E2,2.8667542E1,2.3408604E1,4.3985443E1,2.5214355E1,1.1137817E1,3.1676971E1,3.6252068E1,1.8935818E1,2.3441813E1,9.873199E0,1.006308E1,1.0493164E0,0E0,0E0,0E0,0E0,0E0,0E0,0E0,0E0,0E0,0E0,0E0,0E0,0E0,0E0,0E0,0E0],"parents":[2147483647,0,0,1,1,2,2,3,3,4,4,5,5,6,6,7,7,8,8,9,9,10,10,11,11,12,12,13,13,14,14],"right_children":[2,4,6,8,10,12,14,16,18,20,22,24,26,28,30,-1,-1,-1,-1,-1,-1,-1,-1,-1,-1,-1,-1,-1,-1,-1,-1],"split_conditions":[5.8734726E-2,3.023628E-2,1.0268684E-1,1.4285715E-1,2E0,5E-1,1.4025117E-1,2E0,2E-1,6.25E-1,2.857143E-1,1E0,7.1428573E-1,5E-1,2.0763007E-1,-5.7208043E-2,-4.349157E-2,-1.7729996E-2,-4.4117954E-2,-3.1985205E-2,3.140193E-2,-1.3574152E-2,2.1937603E-2,1.3522488E-4,3.151085E-2,4.0418223E-2,6.953471E-2,5.1093753E-2,7.525932E-2,8.285821E-2,9.327029E-2],"split_indices":[3,3,3,0,1,0,3,1,0,0,0,1,0,0,3,0,0,0,0,0,0,0,0,0,0,0,0,0,0,0,0],"split_type":[0,0,0,0,0,0,0,0,0,0,0,0,0,0,0,0,0,0,0,0,0,0,0,0,0,0,0,0,0,0,0],"sum_hessian":[2.5758567E3,1.6040239E3,9.718328E2,1.1459419E3,4.5808206E2,3.8686285E2,5.8497E2,6.470333E2,4.9890854E2,2.7780484E2,1.802772E2,2.3787903E2,1.4898383E2,2.0087372E2,3.8409625E2,3.4240985E2,3.046235E2,1.7948276E2,3.1942578E2,2.5384949E2,2.3955368E1,1.2837778E2,5.1899426E1,1.2607326E2,1.1180577E2,1.0394372E2,4.5040108E1,9.031325E1,1.1056047E2,2.1795123E2,1.6614502E2],"tree_param":{"num_deleted":"0","num_feature":"4","num_nodes":"31","size_leaf_vector":"1"}},{"base_weights":[-3.4472628E-3,-7.0417327E-1,1.1231806E0,-8.7565887E-1,-3.7761733E-1,5.357532E-1,1.511428E0,-1.0101509E0,-6.8734705E-1,-5.833684E-1,-9.6284024E-2,3.7239248E-1,1.162077E0,1.21967E0,1.6614143E0,-5.827833E-2,-4.505525E-2,-1.8596249E-2,-4.3455254E-2,-3.405583E-2,3.2191675E-2,-1.1824407E-3,-6.3013114E-2,1.5129069E-2,6.920227E-2,6.710177E-2,4.1406322E-2,5.3520568E-2,7.918211E-2,7.8141995E-2,8.822142E-2],"categories":[],"categories_nodes":[],"categories_segments":[],"categories_sizes":[],"default_left":[0,0,0,0,0,0,0,0,0,0,0,0,0,0,0,0,0,0,0,0,0,0,0,0,0,0,0,0,0,0,0],"id":8,"left_children":[1,3,5,7,9,11,13,15,17,19,21,23,25,27,29,-1,-1,-1,-1,-1,-1,-1,-1,-1,-1,-1,-1,-1,-1,-1,-1],"loss_changes":[2.0137561E3,8.773779E1,2.2227344E2,2.540216E1,3.1390053E1,3.95506E1,2.3720459E1,9.100708E0,2.446843E1,3.8054543E1,1.9472942E1,2.1574535E1,3.7185364E0,9.361877E0,1.1604004E0,0E0,0E0,0E0,0E0,0E0,0E0,0E0,0E0,0E0,0E0,0E0,0E0,0E0,0E0,0E0,0E0],"parents":[2147483647,0,0,1,1,2,2,3,3,4,4,5,5,6,6,7,7,8,8,9,9,10,10,11,11,12,12,13,13,14,14],"right_children":[2,4,6,8,10,12,14,16,18,20,22,24,26,28,30,-1,-1,-1,-1,-1,-1,-1,-1,-1,-1,-1,-1,-1,-1,-1,-1],"split_conditions":[5.8734726E-2,2.6493277E-2,1.0268684E-1,1.4285715E-1,1E0,6.666667E-1,1.4025117E-1,5.8623287E-3,2E-1,6.666667E-1,8E0,6E0,8.3119035E-2,6.25E-1,2.0266695E-1,-5.827833E-2,-4.505525E-2,-1.8596249E-2,-4.3455254E-2,-3.405583E-2,3.2191675E-2,-1.1824407E-3,-6.3013114E-2,1.5129069E-2,6.920227E-2,6.710177E-2,4.1406322E-2,5.3520568E-2,7.918211E-2,7.8141995E-2,8.822142E-2],"split_indices":[3,3,3,0,1,0,3,3,0,0,1,1,3,0,3,0,0,0,0,0,0,0,0,0,0,0,0,0,0,0,0],"split_type":[0,0,0,0,0,0,0,0,0,0,0,0,0,0,0,0,0,0,0,0,0,0,0,0,0,0,0,0,0,0,0],"sum_hessian":[2.548808E3,1.5716609E3,9.7714716E2,1.0294043E3,5.4225665E2,3.8978027E2,5.873669E2,5.979706E2,4.3143372E2,3.1257996E2,2.2967667E2,3.1041177E2,7.936849E1,2.0253029E2,3.8483658E2,2.425672E2,3.5540338E2,1.5883624E2,2.7259744E2,2.8993155E2,2.264842E1,2.1714648E2,1.2530178E1,2.915892E2,1.882259E1,4.961399E1,2.9754503E1,1.4642488E2,5.6105396E1,2.049196E2,1.7991698E2],"tree_param":{"num_deleted":"0","num_feature":"4","num_nodes":"31","size_leaf_vector":"1"}},{"base_weights":[-3.5175828E-3,-6.832199E-1,1.0641338E0,-7.941208E-1,-1.8963793E-1,5.0610936E-1,1.4349737E0,-9.4477844E-1,-6.193293E-1,-4.9798226E-1,1.5584219E-1,-9.092263E-3,6.880551E-1,1.2084687E0,8.103296E-2,-5.545434E-2,-4.0256597E-2,-1.060277E-3,-3.616784E-2,-4.0336188E-2,-1.066446E-2,3.3594684E-3,6.88342E-2,-2.5256699E-2,2.4567634E-2,2.6380366E-2,5.4859947E-2,5.362025E-2,7.5006686E-2],"categories":[],"categories_nodes":[],"categories_segments":[],"categories_sizes":[],"default_left":[0,0,0,0,0,0,0,0,0,0,0,0,0,0,0,0,0,0,0,0,0,0,0,0,0,0,0,0,0],"id":9,"left_children":[1,3,5,7,9,11,13,15,17,19,21,23,25,27,-1,-1,-1,-1,-1,-1,-1,-1,-1,-1,-1,-1,-1,-1,-1],"loss_changes":[1.8305009E3,8.421466E1,2.0232227E2,3.2546936E1,3.0339252E1,3.687198E1,2.2810913E1,1.4568054E1,3.6404907E1,1.3042603E1,1.4489675E1,2.5972979E1,1.8501434E1,9.075775E0,0E0,0E0,0E0,0E0,0E0,0E0,0E0,0E0,0E0,0E0,0E0,0E0,0E0,0E0,0E0],"parents":[2147483647,0,0,1,1,2,2,3,3,4,4,5,5,6,6,7,7,8,8,9,9,10,10,11,11,12,12,13,13],"right_children":[2,4,6,8,10,12,14,16,18,20,22,24,26,28,-1,-1,-1,-1,-1,-1,-1,-1,-1,-1,-1,-1,-1,-1,-1],"split_conditions":[5.8734726E-2,3.8833916E-2,1.0268684E-1,1.4285715E-1,2.5E-1,2E-1,1.5875359E-1,9.391025E-3,1E0,1E0,6E0,2E0,6.666667E-1,6.666667E-1,8.103296E-2,-5.545434E-2,-4.0256597E-2,-1.060277E-3,-3.616784E-2,-4.0336188E-2,-1.066446E-2,3.3594684E-3,6.88342E-2,-2.5256699E-2,2.4567634E-2,2.6380366E-2,5.4859947E-2,5.362025E-2,7.5006686E-2],"split_indices":[3,3,3,0,0,0,3,3,2,1,1,1,0,0,0,0,0,0,0,0,0,0,0,0,0,0,0,0,0],"split_type":[0,0,0,0,0,0,0,0,0,0,0,0,0,0,0,0,0,0,0,0,0,0,0,0,0,0,0,0,0],"sum_hessian":[2.520443E3,1.5402372E3,9.8020605E2,1.2571619E3,2.8307532E2,3.9228165E2,5.8792444E2,6.728277E2,5.8433417E2,1.4934343E2,1.3373187E2,1.02628006E2,2.8965366E2,2.6823328E2,3.1969113E2,3.0592902E2,3.6689868E2,8.675063E1,4.9758356E2,7.076604E1,7.85774E1,1.25661835E2,8.070043E0,5.1536037E1,5.1091965E1,2.0970595E2,7.994769E1,1.860954E2,8.213788E1],"tree_param":{"num_deleted":"0","num_feature":"4","num_nodes":"29","size_leaf_vector":"1"}},{"base_weights":[-3.5854038E-3,-6.626422E-1,1.0099542E0,-8.338613E-1,-3.4554756E-1,4.189499E-1,1.3305086E0,-9.7062963E-1,-6.4678514E-1,-5.4620457E-1,-7.656694E-2,2.6604247E-1,1.0242591E0,1.0528969E0,1.5110598E0,-5.4873496E-2,-4.1282523E-2,-1.6698085E-2,-4.1534558E-2,-3.2107122E-2,3.0528849E-2,-2.902329E-4,-6.185189E-2,9.907081E-3,5.9946228E-2,5.6177046E-2,-9.087373E-3,5.3630497E-2,-5.2342113E-2,7.129619E-2,8.15463E-2],"categories":[],"categories_nodes":[],"categories_segments":[],"categories_sizes":[],"default_left":[0,0,0,0,0,0,0,0,0,0,0,0,0,0,0,0,0,0,0,0,0,0,0,0,0,0,0,0,0,0,0],"id":10,"left_children":[1,3,5,7,9,11,13,15,17,19,21,23,25,27,29,-1,-1,-1,-1,-1,-1,-1,-1,-1,-1,-1,-1,-1,-1,-1,-1],"loss_changes":[1.6654546E3,8.173926E1,1.8556305E2,2.445642E1,2.8642487E1,3.183862E1,3.0312012E1,9.471619E0,2.3714844E1,3.415467E1,1.8734789E1,1.73923E1,8.539497E0,1.1641785E1,1.5866699E0,0E0,0E0,0E0,0E0,0E0,0E0,0E0,0E0,0E0,0E0,0E0,0E0,0E0,0E0,0E0,0E0],"parents":[2147483647,0,0,1,1,2,2,3,3,4,4,5,5,6,6,7,7,8,8,9,9,10,10,11,11,12,12,13,13,14,14],"right_children":[2,4,6,8,10,12,14,16,18,20,22,24,26,28,30,-1,-1,-1,-1,-1,-1,-1,-1,-1,-1,-1,-1,-1,-1,-1,-1],"split_conditions":[5.8734726E-2,2.6493277E-2,9.5166065E-2,1.4285715E-1,1E0,6.666667E-1,1.4025117E-1,2E0,2E-1,6.666667E-1,8E0,6E0,9.122635E-2,8E0,2.1220084E-1,-5.4873496E-2,-4.1282523E-2,-1.6698085E-2,-4.1534558E-2,-3.2107122E-2,3.0528849E-2,-2.902329E-4,-6.185189E-2,9.907081E-3,5.9946228E-2,5.6177046E-2,-9.087373E-3,5.3630497E-2,-5.2342113E-2,7.129619E-2,8.15463E-2],"split_indices":[3,3,3,0,1,0,3,1,0,0,1,1,3,1,3,0,0,0,0,0,0,0,0,0,0,0,0,0,0,0,0],"split_type":[0,0,0,0,0,0,0,0,0,0,0,0,0,0,0,0,0,0,0,0,0,0,0,0,0,0,0,0,0,0,0],"sum_hessian":[2.491268E3,1.509838E3,9.8142993E2,9.7938007E2,5.30458E2,3.4593622E2,6.354937E2,5.633416E2,4.1603842E2,3.0322464E2,2.2723337E2,2.7732144E2,6.861479E1,2.5312521E2,3.8236847E2,2.969629E2,2.6637875E2,1.5507402E2,2.609644E2,2.804134E2,2.2811245E1,2.151209E2,1.2112471E1,2.5963593E2,1.7685495E1,6.3459045E1,5.155746E0,2.512555E2,1.869711E0,2.31114E2,1.5125449E2],"tree_param":{"num_deleted":"0","num_feature":"4","num_nodes":"31","size_leaf_vector":"1"}},{"base_weights":[-3.6715996E-3,-6.4276695E-1,9.602375E-1,-8.1331813E-1,-3.318056E-1,4.9040547E-1,1.3336958E0,-9.5149577E-1,-6.265249E-1,-5.274629E-1,-7.319115E-2,-2.338523E-2,6.6271055E-1,1.1213486E0,1.4845533E0,-5.4044545E-2,-4.0252868E-2,-1.6010333E-2,-4.0475365E-2,-3.1070307E-2,2.883403E-2,-2.7582765E-4,-6.077329E-2,-2.601381E-2,2.3457069E-2,2.6033157E-2,5.19099E-2,4.9553618E-2,6.550585E-2,4.541984E-2,7.46057E-2],"categories":[],"categories_nodes":[],"categories_segments":[],"categories_sizes":[],"default_left":[0,0,0,0,0,0,0,0,0,0,0,0,0,0,0,0,0,0,0,0,0,0,0,0,0,0,0,0,0,0,0],"id":11,"left_children":[1,3,5,7,9,11,13,15,17,19,21,23,25,27,29,-1,-1,-1,-1,-1,-1,-1,-1,-1,-1,-1,-1,-1,-1,-1,-1],"loss_changes":[1.5172869E3,7.827673E1,1.7164478E2,2.4072876E1,2.6590614E1,3.8654266E1,1.5842468E1,9.503052E0,2.2683548E1,3.1418526E1,1.7605152E1,2.730569E1,1.689415E1,4.384369E0,2.2949219E-2,0E0,0E0,0E0,0E0,0E0,0E0,0E0,0E0,0E0,0E0,0E0,0E0,0E0,0E0,0E0,0E0],"parents":[2147483647,0,0,1,1,2,2,3,3,4,4,5,5,6,6,7,7,8,8,9,9,10,10,11,11,12,12,13,13,14,14],"right_children":[2,4,6,8,10,12,14,16,18,20,22,24,26,28,30,-1,-1,-1,-1,-1,-1,-1,-1,-1,-1,-1,-1,-1,-1,-1,-1],"split_conditions":[5.8734726E-2,2.6493277E-2,1.0747353E-1,1.4285715E-1,1E0,2E-1,1.5875359E-1,2E0,2E-1,6.666667E-1,8E0,2E0,6.666667E-1,6E-1,-1.1E1,-5.4044545E-2,-4.0252868E-2,-1.6010333E-2,-4.0475365E-2,-3.1070307E-2,2.883403E-2,-2.7582765E-4,-6.077329E-2,-2.601381E-2,2.3457069E-2,2.6033157E-2,5.19099E-2,4.9553618E-2,6.550585E-2,4.541984E-2,7.46057E-2],"split_indices":[3,3,3,0,1,0,3,1,0,0,1,1,0,0,1,0,0,0,0,0,0,0,0,0,0,0,0,0,0,0,0],"split_type":[0,0,0,0,0,0,0,0,0,0,0,0,0,0,0,0,0,0,0,0,0,0,0,0,0,0,0,0,0,0,0],"sum_hessian":[2.461007E3,1.4800385E3,9.8096857E2,9.547673E2,5.252712E2,4.354546E2,5.45514E2,5.4644696E2,4.083203E2,2.984422E2,2.2682896E2,1.09576485E2,3.258781E2,2.3008276E2,3.1543118E2,2.8671777E2,2.5972922E2,1.5372679E2,2.5459352E2,2.7544397E2,2.2998241E1,2.1509065E2,1.17383175E1,5.4518524E1,5.505796E1,2.3816615E2,8.771195E1,1.3983052E2,9.025224E1,5.654865E0,3.0977634E2],"tree_param":{"num_deleted":"0","num_feature":"4","num_nodes":"31","size_leaf_vector":"1"}},{"base_weights":[-3.7143042E-3,-6.2338644E-1,9.142413E-1,-7.7258396E-1,-2.758757E-1,4.2520168E-1,1.248091E0,-9.1828614E-1,-5.9242773E-1,-4.2798182E-1,4.378443E-2,2.1132098E-1,7.6056564E-1,9.8367476E-1,1.3894056E0,-5.311486E-2,-3.7925538E-2,-1.3624223E-2,-3.9107885E-2,-3.0942364E-2,-7.900893E-3,-1.869485E-2,2.0181123E-2,-2.0471308E-3,2.4330972E-2,9.325715E-2,3.4815818E-2,3.724385E-2,5.8686323E-2,6.519862E-2,7.55743E-2],"categories":[],"categories_nodes":[],"categories_segments":[],"categories_sizes":[],"default_left":[0,0,0,0,0,0,0,0,0,0,0,0,0,0,0,0,0,0,0,0,0,0,0,0,0,0,0,0,0,0,0],"id":12,"left_children":[1,3,5,7,9,11,13,15,17,19,21,23,25,27,29,-1,-1,-1,-1,-1,-1,-1,-1,-1,-1,-1,-1,-1,-1,-1,-1],"loss_changes":[1.3835756E3,7.507361E1,1.5950818E2,2.6108215E1,2.1301598E1,2.8473236E1,2.038153E1,1.2068909E1,2.7516968E1,1.5189316E1,2.1498543E1,1.704396E1,9.7062E0,8.481384E0,1.9598389E0,0E0,0E0,0E0,0E0,0E0,0E0,0E0,0E0,0E0,0E0,0E0,0E0,0E0,0E0,0E0,0E0],"parents":[2147483647,0,0,1,1,2,2,3,3,4,4,5,5,6,6,7,7,8,8,9,9,10,10,11,11,12,12,13,13,14,14],"right_children":[2,4,6,8,10,12,14,16,18,20,22,24,26,28,30,-1,-1,-1,-1,-1,-1,-1,-1,-1,-1,-1,-1,-1,-1,-1,-1],"split_conditions":[5.8734726E-2,3.023628E-2,1.0268684E-1,1.4285715E-1,4.83043E-2,5E-1,1.4025117E-1,2E0,2E-1,2E0,2.5E-1,1E0,-1E1,5E-1,2.1220084E-1,-5.311486E-2,-3.7925538E-2,-1.3624223E-2,-3.9107885E-2,-3.0942364E-2,-7.900893E-3,-1.869485E-2,2.0181123E-2,-2.0471308E-3,2.4330972E-2,9.325715E-2,3.4815818E-2,3.724385E-2,5.8686323E-2,6.519862E-2,7.55743E-2],"split_indices":[3,3,3,0,3,0,3,1,0,1,0,1,1,0,3,0,0,0,0,0,0,0,0,0,0,0,0,0,0,0,0],"split_type":[0,0,0,0,0,0,0,0,0,0,0,0,0,0,0,0,0,0,0,0,0,0,0,0,0,0,0,0,0,0,0],"sum_hessian":[2.4303096E3,1.4510736E3,9.792361E2,1.0143552E3,4.3671838E2,3.9820267E2,5.8103345E2,5.585379E2,4.558173E2,2.956827E2,1.4103568E2,2.4413435E2,1.540683E2,2.0514455E2,3.758889E2,2.9079007E2,2.6774783E2,1.7058856E2,2.8522873E2,1.7246036E2,1.2322236E2,6.525359E1,7.578208E1,1.2784121E2,1.1629315E2,6.9282093E0,1.4714009E2,9.309328E1,1.1205127E2,2.2800797E2,1.4788094E2],"tree_param":{"num_deleted":"0","num_feature":"4","num_nodes":"31","size_leaf_vector":"1"}},{"base_weights":[-3.6831365E-3,-6.044615E-1,8.716683E-1,-8.3031994E-1,-3.7829623E-1,3.4902048E-1,1.1632271E0,-9.656559E-1,-6.242193E-1,-5.9012836E-1,-1.0642083E-1,-9.469482E-2,5.13567E-1,9.0629536E-1,1.3362738E0,-5.0005626E-2,-2.3812821E-2,-1.1842518E-2,-3.826992E-2,-3.3133693E-2,2.709409E-2,-2.1002889E-3,-6.0525905E-2,-2.5491929E-2,1.5612851E-2,2.0494564E-2,5.231371E-2,4.6253305E-2,-5.2982338E-2,6.2251914E-2,7.252314E-2],"categories":[],"categories_nodes":[],"categories_segments":[],"categories_sizes":[],"default_left":[0,0,0,0,0,0,0,0,0,0,0,0,0,0,0,0,0,0,0,0,0,0,0,0,0,0,0,0,0,0,0],"id":13,"left_children":[1,3,5,7,9,11,13,15,17,19,21,23,25,27,29,-1,-1,-1,-1,-1,-1,-1,-1,-1,-1,-1,-1,-1,-1,-1,-1],"loss_changes":[1.2627933E3,7.242279E1,1.4851685E2,1.9246246E1,4.101895E1,2.5704094E1,2.6661987E1,6.7364197E0,1.5399078E1,3.326671E1,2.2253204E1,1.6361141E1,1.3736588E1,1.0405426E1,2.0748901E0,0E0,0E0,0E0,0E0,0E0,0E0,0E0,0E0,0E0,0E0,0E0,0E0,0E0,0E0,0E0,0E0],"parents":[2147483647,0,0,1,1,2,2,3,3,4,4,5,5,6,6,7,7,8,8,9,9,10,10,11,11,12,12,13,13,14,14],"right_children":[2,4,6,8,10,12,14,16,18,20,22,24,26,28,30,-1,-1,-1,-1,-1,-1,-1,-1,-1,-1,-1,-1,-1,-1,-1,-1],"split_conditions":[5.8734726E-2,1.8507984E-2,9.5166065E-2,1.4285715E-1,1E0,2E-1,1.4025117E-1,6E0,3.0237632E-3,6.666667E-1,8E0,2E0,7.1428573E-1,8E0,2.0763007E-1,-5.0005626E-2,-2.3812821E-2,-1.1842518E-2,-3.826992E-2,-3.3133693E-2,2.709409E-2,-2.1002889E-3,-6.0525905E-2,-2.5491929E-2,1.5612851E-2,2.0494564E-2,5.231371E-2,4.6253305E-2,-5.2982338E-2,6.2251914E-2,7.252314E-2],"split_indices":[3,3,3,0,1,0,3,1,3,0,1,1,0,1,3,0,0,0,0,0,0,0,0,0,0,0,0,0,0,0,0],"split_type":[0,0,0,0,0,0,0,0,0,0,0,0,0,0,0,0,0,0,0,0,0,0,0,0,0,0,0,0,0,0,0],"sum_hessian":[2.399238E3,1.4229421E3,9.7629584E2,7.1061743E2,7.1232477E2,3.5038794E2,6.259079E2,4.267239E2,2.8389352E2,3.9971536E2,3.1260944E2,9.490151E1,2.5548643E2,2.5440964E2,3.7149826E2,3.9768124E2,2.9042667E1,7.654526E1,2.0734825E2,3.7603177E2,2.3683588E1,2.9635742E2,1.625199E1,4.6852776E1,4.804874E1,2.1534528E2,4.014116E1,2.5252795E2,1.8816744E0,2.1312085E2,1.583774E2],"tree_param":{"num_deleted":"0","num_feature":"4","num_nodes":"31","size_leaf_vector":"1"}},{"base_weights":[-3.7256423E-3,-5.8584285E-1,8.318549E-1,-7.5534385E-1,-2.8983772E-1,4.150329E-1,1.1752281E0,-8.9811164E-1,-5.6914157E-1,-3.555381E-1,4.7509864E-1,-3.8154304E-2,5.6516635E-1,9.703899E-1,1.3253762E0,-5.3954083E-2,-3.873108E-2,-1.3599129E-2,-3.766742E-2,-2.3625636E-2,-2.1719062E-3,5.5795263E-2,-5.863728E-2,-2.448467E-2,1.9713586E-2,2.9417166E-2,-6.5374605E-2,4.307851E-2,5.9168734E-2,6.203264E-2,7.056051E-2],"categories":[],"categories_nodes":[],"categories_segments":[],"categories_sizes":[],"default_left":[0,0,0,0,0,0,0,0,0,0,0,0,0,0,0,0,0,0,0,0,0,0,0,0,0,0,0,0,0,0,0],"id":14,"left_children":[1,3,5,7,9,11,13,15,17,19,21,23,25,27,29,-1,-1,-1,-1,-1,-1,-1,-1,-1,-1,-1,-1,-1,-1,-1,-1],"loss_changes":[1.1529304E3,6.987482E1,1.3881146E2,2.308783E1,2.5815575E1,3.0037567E1,1.5110107E1,1.0354492E1,2.1033043E1,1.7157211E1,4.4383026E1,2.1811514E1,1.5154785E1,4.293091E0,4.663086E-1,0E0,0E0,0E0,0E0,0E0,0E0,0E0,0E0,0E0,0E0,0E0,0E0,0E0,0E0,0E0,0E0],"parents":[2147483647,0,0,1,1,2,2,3,3,4,4,5,5,6,6,7,7,8,8,9,9,10,10,11,11,12,12,13,13,14,14],"right_children":[2,4,6,8,10,12,14,16,18,20,22,24,26,28,30,-1,-1,-1,-1,-1,-1,-1,-1,-1,-1,-1,-1,-1,-1,-1,-1],"split_conditions":[5.8734726E-2,2.6493277E-2,1.0747353E-1,1.4285715E-1,6E0,2E-1,1.5875359E-1,5.8623287E-3,2E-1,4.83043E-2,8E0,2E0,8E0,6.666667E-1,2.1220084E-1,-5.3954083E-2,-3.873108E-2,-1.3599129E-2,-3.766742E-2,-2.3625636E-2,-2.1719062E-3,5.5795263E-2,-5.863728E-2,-2.448467E-2,1.9713586E-2,2.9417166E-2,-6.5374605E-2,4.307851E-2,5.9168734E-2,6.203264E-2,7.056051E-2],"split_indices":[3,3,3,0,1,0,3,3,0,3,1,1,1,0,3,0,0,0,0,0,0,0,0,0,0,0,0,0,0,0,0],"split_type":[0,0,0,0,0,0,0,0,0,0,0,0,0,0,0,0,0,0,0,0,0,0,0,0,0,0,0,0,0,0,0],"sum_hessian":[2.3683035E3,1.3960366E3,9.722668E2,8.867223E2,5.093144E2,4.4016165E2,5.3210516E2,4.9973486E2,3.8698743E2,4.6952234E2,3.9792053E1,1.0971772E2,3.3044394E2,2.2822038E2,3.0388477E2,1.9955559E2,3.001793E2,1.4903824E2,2.3794919E2,3.4114694E2,1.2837538E2,2.8882973E1,1.0909079E1,5.3607918E1,5.61098E1,3.2708163E2,3.3623066E0,1.543857E2,7.383468E1,1.6070908E2,1.4317569E2],"tree_param":{"num_deleted":"0","num_feature":"4","num_nodes":"31","size_leaf_vector":"1"}},{"base_weights":[-3.7457256E-3,-5.676711E-1,7.942571E-1,-7.9291636E-1,-3.4866187E-1,3.92812E-1,1.1297971E0,-9.320506E-1,-5.867869E-1,-5.572942E-1,-8.589151E-2,1.8957517E-1,7.069033E-1,9.26802E-1,1.2803788E0,-4.8412666E-2,-2.1467816E-2,-1.0158426E-2,-3.645509E-2,-3.145879E-2,2.6238224E-2,-1.2657245E-3,-5.8903683E-2,-3.4238738E-3,2.3430837E-2,8.600851E-2,3.236562E-2,4.331288E-2,6.584542E-2,5.976035E-2,6.836971E-2],"categories":[],"categories_nodes":[],"categories_segments":[],"categories_sizes":[],"default_left":[0,0,0,0,0,0,0,0,0,0,0,0,0,0,0,0,0,0,0,0,0,0,0,0,0,0,0,0,0,0,0],"id":15,"left_children":[1,3,5,7,9,11,13,15,17,19,21,23,25,27,29,-1,-1,-1,-1,-1,-1,-1,-1,-1,-1,-1,-1,-1,-1,-1,-1],"loss_changes":[1.0529174E3,6.7352875E1,1.3005511E2,1.881363E1,3.8156456E1,2.8120445E1,1.4928101E1,6.8879395E0,1.4850937E1,3.0529991E1,2.0453888E1,1.9481144E1,9.363899E0,4.2476196E0,5.8935547E-1,0E0,0E0,0E0,0E0,0E0,0E0,0E0,0E0,0E0,0E0,0E0,0E0,0E0,0E0,0E0,0E0],"parents":[2147483647,0,0,1,1,2,2,3,3,4,4,5,5,6,6,7,7,8,8,9,9,10,10,11,11,12,12,13,13,14,14],"right_children":[2,4,6,8,10,12,14,16,18,20,22,24,26,28,30,-1,-1,-1,-1,-1,-1,-1,-1,-1,-1,-1,-1,-1,-1,-1,-1],"split_conditions":[5.8734726E-2,1.8507984E-2,1.0747353E-1,1.4285715E-1,1E0,5E-1,1.5875359E-1,6E0,3.0237632E-3,6.666667E-1,8E0,1E0,-1E1,8.333333E-1,2.1220084E-1,-4.8412666E-2,-2.1467816E-2,-1.0158426E-2,-3.645509E-2,-3.145879E-2,2.6238224E-2,-1.2657245E-3,-5.8903683E-2,-3.4238738E-3,2.3430837E-2,8.600851E-2,3.236562E-2,4.331288E-2,6.584542E-2,5.976035E-2,6.836971E-2],"split_indices":[3,3,3,0,1,0,3,1,3,0,1,1,1,0,3,0,0,0,0,0,0,0,0,0,0,0,0,0,0,0,0],"split_type":[0,0,0,0,0,0,0,0,0,0,0,0,0,0,0,0,0,0,0,0,0,0,0,0,0,0,0,0,0,0,0],"sum_hessian":[2.337741E3,1.3699358E3,9.678052E2,6.740612E2,6.9587463E2,4.4161774E2,5.2618744E2,4.0032578E2,2.7373544E2,3.8727127E2,3.086034E2,2.6909793E2,1.7251979E2,2.2714046E2,2.99047E2,3.7256827E2,2.7757507E1,7.47283E1,1.9900713E2,3.635397E2,2.3731577E1,2.933558E2,1.5247571E1,1.40199E2,1.2889894E2,8.034637E0,1.6448515E2,1.9941231E2,2.7728144E1,1.5857117E2,1.4047585E2],"tree_param":{"num_deleted":"0","num_feature":"4","num_nodes":"31","size_leaf_vector":"1"}},{"base_weights":[-3.668479E-3,-6.211289E-1,6.726189E-1,-7.9482317E-1,-4.5090643E-1,2.2782473E-1,1.031385E0,-9.7844136E-1,-6.1003464E-1,1.3455682E-1,-5.601502E-1,1.0246325E-1,8.041619E-1,7.882844E-1,1.202062E0,-2.8176157E-2,-5.075282E-2,-4.028111E-2,-1.5500635E-2,-4.428139E-2,1.9085255E-2,-3.452345E-2,-1.1400988E-2,1.4004235E-3,5.1547647E-2,6.489449E-2,2.8483251E-2,3.0783946E-2,5.0824285E-2,5.556309E-2,6.592667E-2],"categories":[],"categories_nodes":[],"categories_segments":[],"categories_sizes":[],"default_left":[0,0,0,0,0,0,0,0,0,0,0,0,0,0,0,0,0,0,0,0,0,0,0,0,0,0,0,0,0,0,0],"id":16,"left_children":[1,3,5,7,9,11,13,15,17,19,21,23,25,27,29,-1,-1,-1,-1,-1,-1,-1,-1,-1,-1,-1,-1,-1,-1,-1,-1],"loss_changes":[9.642902E2,3.533188E1,1.7563766E2,1.963092E1,3.9215263E1,3.5562126E1,2.4352783E1,3.9456787E0,1.7341805E1,2.480491E1,2.2173126E1,2.806258E1,9.448193E0,9.395737E0,2.3033447E0,0E0,0E0,0E0,0E0,0E0,0E0,0E0,0E0,0E0,0E0,0E0,0E0,0E0,0E0,0E0,0E0],"parents":[2147483647,0,0,1,1,2,2,3,3,4,4,5,5,6,6,7,7,8,8,9,9,10,10,11,11,12,12,13,13,14,14],"right_children":[2,4,6,8,10,12,14,16,18,20,22,24,26,28,30,-1,-1,-1,-1,-1,-1,-1,-1,-1,-1,-1,-1,-1,-1,-1,-1],"split_conditions":[4.83043E-2,1.4285715E-1,9.5166065E-2,2E0,1E0,6.666667E-1,1.4025117E-1,-1.1E1,1.82406E-2,7.4170376E-3,1E0,6E0,-6E0,1E0,2.0763007E-1,-2.8176157E-2,-5.075282E-2,-4.028111E-2,-1.5500635E-2,-4.428139E-2,1.9085255E-2,-3.452345E-2,-1.1400988E-2,1.4004235E-3,5.1547647E-2,6.489449E-2,2.8483251E-2,3.0783946E-2,5.0824285E-2,5.556309E-2,6.592667E-2],"split_indices":[3,0,3,1,2,0,3,1,3,3,1,1,1,1,3,0,0,0,0,0,0,0,0,0,0,0,0,0,0,0,0],"split_type":[0,0,0,0,0,0,0,0,0,0,0,0,0,0,0,0,0,0,0,0,0,0,0,0,0,0,0,0,0,0,0],"sum_hessian":[2.30723E3,1.2061128E3,1.1011173E3,5.951526E2,6.109602E2,4.9234647E2,6.087708E2,2.963673E2,2.9878528E2,9.603802E1,5.149222E2,4.05354E2,8.699244E1,2.534264E2,3.5534442E2,2.536167E1,2.710056E2,1.7985237E2,1.189329E2,1.8225006E1,7.781301E1,3.690416E2,1.4588058E2,3.7621576E2,2.913825E1,2.6552332E1,6.044011E1,1.4639499E2,1.0703141E2,2.0560072E2,1.497437E2],"tree_param":{"num_deleted":"0","num_feature":"4","num_nodes":"31","size_leaf_vector":"1"}},{"base_weights":[-3.6149274E-3,-5.1708484E-1,7.5142753E-1,-6.418286E-1,-8.115336E-2,4.313901E-1,1.1033041E0,-8.015333E-1,-4.722473E-1,-3.836595E-1,2.2691777E-1,-3.7246016E-3,5.6217355E-1,9.294956E-1,1.2130861E0,-5.208757E-2,-3.3945926E-2,6.1526876E-3,-2.9115884E-2,-3.385752E-2,-6.790831E-3,4.2958695E-2,3.7946352E-3,-2.1784438E-2,1.9978683E-2,2.9283214E-2,-6.714758E-2,4.3037992E-2,6.579939E-2,2.2820948E-2,6.0893822E-2],"categories":[],"categories_nodes":[],"categories_segments":[],"categories_sizes":[],"default_left":[0,0,0,0,0,0,0,0,0,0,0,0,0,0,0,0,0,0,0,0,0,0,0,0,0,0,0,0,0,0,0],"id":17,"left_children":[1,3,5,7,9,11,13,15,17,19,21,23,25,27,29,-1,-1,-1,-1,-1,-1,-1,-1,-1,-1,-1,-1,-1,-1,-1,-1],"loss_changes":[8.8338464E2,7.3700226E1,1.03390625E2,2.8176483E1,2.8314789E1,2.7581932E1,7.242737E0,1.5243866E1,3.373829E1,1.1051666E1,1.4324141E1,1.9860138E1,1.7463943E1,3.4921417E0,4.0673828E-1,0E0,0E0,0E0,0E0,0E0,0E0,0E0,0E0,0E0,0E0,0E0,0E0,0E0,0E0,0E0,0E0],"parents":[2147483647,0,0,1,1,2,2,3,3,4,4,5,5,6,6,7,7,8,8,9,9,10,10,11,11,12,12,13,13,14,14],"right_children":[2,4,6,8,10,12,14,16,18,20,22,24,26,28,30,-1,-1,-1,-1,-1,-1,-1,-1,-1,-1,-1,-1,-1,-1,-1,-1],"split_conditions":[6.1224796E-2,3.8833916E-2,1.21022664E-1,1.4285715E-1,2.5E-1,2E-1,1.667133E-1,5.8623287E-3,1E0,1E0,-7E0,2E0,8E0,8.333333E-1,-1.8E1,-5.208757E-2,-3.3945926E-2,6.1526876E-3,-2.9115884E-2,-3.385752E-2,-6.790831E-3,4.2958695E-2,3.7946352E-3,-2.1784438E-2,1.9978683E-2,2.9283214E-2,-6.714758E-2,4.3037992E-2,6.579939E-2,2.2820948E-2,6.0893822E-2],"split_indices":[3,3,3,0,0,0,3,3,2,1,1,1,1,0,1,0,0,0,0,0,0,0,0,0,0,0,0,0,0,0,0],"split_type":[0,0,0,0,0,0,0,0,0,0,0,0,0,0,0,0,0,0,0,0,0,0,0,0,0,0,0,0,0,0,0],"sum_hessian":[2.2765735E3,1.3552471E3,9.213265E2,1.053353E3,3.0189404E2,4.836579E2,4.3766858E2,5.4055444E2,5.127985E2,1.5219899E2,1.4969504E2,1.1200159E2,3.716563E2,1.7309239E2,2.6457617E2,1.8014038E2,3.6041406E2,8.000173E1,4.327968E2,6.888935E1,8.330965E1,2.795874E1,1.217363E2,5.404009E1,5.7961494E1,3.6781366E2,3.842667E0,1.4969669E2,2.3395718E1,2.2701337E0,2.6230606E2],"tree_param":{"num_deleted":"0","num_feature":"4","num_nodes":"31","size_leaf_vector":"1"}},{"base_weights":[-3.5856534E-3,-5.853905E-1,6.156363E-1,-7.589434E-1,-4.198173E-1,2.0344405E-1,9.5650834E-1,-9.507004E-1,-5.695734E-1,1.2269743E-1,-5.2508795E-1,-1.7611556E-1,3.6795658E-1,7.2163266E-1,1.1265969E0,-2.6214158E-2,-4.9455136E-2,-4.8957124E-2,-2.1114854E-2,-4.3410715E-2,1.7743422E-2,-3.2803044E-2,-9.864496E-3,7.5734876E-2,-1.2462888E-2,1.5631344E-2,6.702962E-2,2.576347E-2,4.5100406E-2,5.1971138E-2,6.2874325E-2],"categories":[],"categories_nodes":[],"categories_segments":[],"categories_sizes":[],"default_left":[0,0,0,0,0,0,0,0,0,0,0,0,0,0,0,0,0,0,0,0,0,0,0,0,0,0,0,0,0,0,0],"id":18,"left_children":[1,3,5,7,9,11,13,15,17,19,21,23,25,27,29,-1,-1,-1,-1,-1,-1,-1,-1,-1,-1,-1,-1,-1,-1,-1,-1],"loss_changes":[8.102665E2,3.300244E1,1.5288638E2,1.9971832E1,3.408339E1,3.0938269E1,2.3E1,4.0532837E0,1.6881157E1,2.2764635E1,2.129625E1,1.895015E1,1.81609E1,8.957779E0,2.61734E0,0E0,0E0,0E0,0E0,0E0,0E0,0E0,0E0,0E0,0E0,0E0,0E0,0E0,0E0,0E0,0E0],"parents":[2147483647,0,0,1,1,2,2,3,3,4,4,5,5,6,6,7,7,8,8,9,9,10,10,11,11,12,12,13,13,14,14],"right_children":[2,4,6,8,10,12,14,16,18,20,22,24,26,28,30,-1,-1,-1,-1,-1,-1,-1,-1,-1,-1,-1,-1,-1,-1,-1,-1],"split_conditions":[4.83043E-2,1.4285715E-1,9.5166065E-2,2E0,1E0,2E-1,1.4025117E-1,-1.1E1,5.405042E-3,7.4170376E-3,1E0,-1.2E1,6E0,5E-1,2.1220084E-1,-2.6214158E-2,-4.9455136E-2,-4.8957124E-2,-2.1114854E-2,-4.3410715E-2,1.7743422E-2,-3.2803044E-2,-9.864496E-3,7.5734876E-2,-1.2462888E-2,1.5631344E-2,6.702962E-2,2.576347E-2,4.5100406E-2,5.1971138E-2,6.2874325E-2],"split_indices":[3,0,3,1,2,0,3,1,3,3,1,1,1,0,3,0,0,0,0,0,0,0,0,0,0,0,0,0,0,0,0],"split_type":[0,0,0,0,0,0,0,0,0,0,0,0,0,0,0,0,0,0,0,0,0,0,0,0,0,0,0,0,0,0,0],"sum_hessian":[2.247076E3,1.1585691E3,1.0885068E3,5.639042E2,5.94665E2,4.9343176E2,5.950751E2,2.7818863E2,2.8571558E2,9.661123E1,4.980537E2,1.4917896E2,3.442528E2,2.5213878E2,3.4293628E2,2.419385E1,2.5399477E2,7.407313E1,2.1164246E2,1.7819138E1,7.879208E1,3.5515057E2,1.4290315E2,5.36846E0,1.4381049E2,3.2697388E2,1.7278934E1,1.1939662E2,1.3274216E2,2.1120934E2,1.3172693E2],"tree_param":{"num_deleted":"0","num_feature":"4","num_nodes":"31","size_leaf_vector":"1"}},{"base_weights":[-3.528122E-3,-5.678734E-1,5.8889496E-1,-7.242761E-1,-3.8526168E-1,1.9318478E-1,9.2084205E-1,-8.698014E-1,-5.2128005E-1,-5.9962314E-1,-9.707867E-2,7.8972206E-2,7.2267723E-1,7.304672E-1,1.1305213E0,-4.550268E-2,-1.664654E-2,-5.7544983E-3,-3.365106E-2,-2.3451361E-3,-3.40604E-2,1.1118496E-2,-2.3144593E-2,4.7512545E-4,4.668774E-2,5.9685875E-2,2.500971E-2,3.725037E-2,-5.369584E-2,5.2060425E-2,6.125006E-2],"categories":[],"categories_nodes":[],"categories_segments":[],"categories_sizes":[],"default_left":[0,0,0,0,0,0,0,0,0,0,0,0,0,0,0,0,0,0,0,0,0,0,0,0,0,0,0,0,0,0,0],"id":19,"left_children":[1,3,5,7,9,11,13,15,17,19,21,23,25,27,29,-1,-1,-1,-1,-1,-1,-1,-1,-1,-1,-1,-1,-1,-1,-1,-1],"loss_changes":[7.4210266E2,3.218814E1,1.4206567E2,1.7601746E1,3.2471344E1,2.9894077E1,2.2670929E1,7.357666E0,1.5805931E1,1.357605E1,2.6490334E1,2.4249348E1,8.599243E0,8.968475E0,1.0727539E0,0E0,0E0,0E0,0E0,0E0,0E0,0E0,0E0,0E0,0E0,0E0,0E0,0E0,0E0,0E0,0E0],"parents":[2147483647,0,0,1,1,2,2,3,3,4,4,5,5,6,6,7,7,8,8,9,9,10,10,11,11,12,12,13,13,14,14],"right_children":[2,4,6,8,10,12,14,16,18,20,22,24,26,28,30,-1,-1,-1,-1,-1,-1,-1,-1,-1,-1,-1,-1,-1,-1,-1,-1],"split_conditions":[4.83043E-2,1.8507984E-2,9.5166065E-2,1.4285715E-1,2E0,6.666667E-1,1.5875359E-1,6E0,3.0237632E-3,1E0,4E0,6E0,-6E0,8E0,2.1220084E-1,-4.550268E-2,-1.664654E-2,-5.7544983E-3,-3.365106E-2,-2.3451361E-3,-3.40604E-2,1.1118496E-2,-2.3144593E-2,4.7512545E-4,4.668774E-2,5.9685875E-2,2.500971E-2,3.725037E-2,-5.369584E-2,5.2060425E-2,6.125006E-2],"split_indices":[3,3,3,0,1,0,3,1,3,2,1,1,1,1,3,0,0,0,0,0,0,0,0,0,0,0,0,0,0,0,0],"split_type":[0,0,0,0,0,0,0,0,0,0,0,0,0,0,0,0,0,0,0,0,0,0,0,0,0,0,0,0,0,0,0],"sum_hessian":[2.2176628E3,1.135767E3,1.081896E3,6.101884E2,5.2557855E2,4.9426746E2,5.8762854E2,3.5349072E2,2.566977E2,3.0077213E2,2.2480641E2,4.0751486E2,8.675261E1,3.1034213E2,2.7728638E2,3.281894E2,2.5301327E1,7.029257E1,1.8640512E2,3.888812E1,2.61884E2,1.202177E2,1.0458871E2,3.778199E2,2.9694977E1,2.64299E1,6.0322712E1,3.0844373E2,1.8984091E0,1.4872023E2,1.2856615E2],"tree_param":{"num_deleted":"0","num_feature":"4","num_nodes":"31","size_leaf_vector":"1"}},{"base_weights":[-3.4732209E-3,-4.6949235E-1,6.624448E-1,-6.497733E-1,-1.993318E-1,3.7200364E-1,9.981127E-1,-8.0013114E-1,-4.6859372E-1,-2.6022068E-1,4.8069787E-1,3.9993066E-1,-7.317376E-2,8.256514E-1,1.1109926E0,-5.0324094E-2,-3.3345763E-2,-8.199296E-3,-3.32642E-2,-9.708584E-3,-3.579662E-2,5.0670978E-2,-5.699134E-2,1.6588708E-2,8.2140595E-2,3.7859775E-2,6.0926076E-2,5.085332E-2,5.9727024E-2],"categories":[],"categories_nodes":[],"categories_segments":[],"categories_sizes":[],"default_left":[0,0,0,0,0,0,0,0,0,0,0,0,0,0,0,0,0,0,0,0,0,0,0,0,0,0,0,0,0],"id":20,"left_children":[1,3,5,7,9,11,13,15,17,19,21,23,-1,25,27,-1,-1,-1,-1,-1,-1,-1,-1,-1,-1,-1,-1,-1,-1],"loss_changes":[6.7975006E2,6.263202E1,8.754611E1,2.0667297E1,2.1539787E1,2.5449257E1,7.2148743E0,1.0893585E1,2.1023628E1,1.416814E1,3.8150177E1,3.999543E1,0E0,3.6264343E0,7.4368286E-1,0E0,0E0,0E0,0E0,0E0,0E0,0E0,0E0,0E0,0E0,0E0,0E0,0E0,0E0],"parents":[2147483647,0,0,1,1,2,2,3,3,4,4,5,5,6,6,7,7,8,8,9,9,10,10,11,11,13,13,14,14],"right_children":[2,4,6,8,10,12,14,16,18,20,22,24,-1,26,28,-1,-1,-1,-1,-1,-1,-1,-1,-1,-1,-1,-1,-1,-1],"split_conditions":[6.1224796E-2,2.6493277E-2,1.21022664E-1,1.4285715E-1,6E0,8E0,1.667133E-1,5.8623287E-3,2E-1,4E0,8E0,6E0,-7.317376E-2,8.333333E-1,2.1220084E-1,-5.0324094E-2,-3.3345763E-2,-8.199296E-3,-3.32642E-2,-9.708584E-3,-3.579662E-2,5.0670978E-2,-5.699134E-2,1.6588708E-2,8.2140595E-2,3.7859775E-2,6.0926076E-2,5.085332E-2,5.9727024E-2],"split_indices":[3,3,3,0,1,1,3,3,0,1,1,1,0,0,3,0,0,0,0,0,0,0,0,0,0,0,0,0,0],"split_type":[0,0,0,0,0,0,0,0,0,0,0,0,0,0,0,0,0,0,0,0,0,0,0,0,0,0,0,0,0],"sum_hessian":[2.1884043E3,1.2876107E3,9.007937E2,7.714253E2,5.1618536E2,4.8406137E2,4.1673236E2,4.1970404E2,3.5172125E2,4.7433173E2,4.1853634E1,4.775771E2,6.4842753E0,1.6814691E2,2.4858545E2,1.6208296E2,2.576211E2,1.3872151E2,2.1299974E2,4.1553226E2,5.879946E1,3.1780827E1,1.0072806E1,4.539505E2,2.3626574E1,1.4568861E2,2.2458288E1,1.23225876E2,1.2535957E2],"tree_param":{"num_deleted":"0","num_feature":"4","num_nodes":"29","size_leaf_vector":"1"}},{"base_weights":[-3.4131955E-3,-5.34951E-1,5.413988E-1,-7.1020246E-1,-3.734294E-1,2.076343E-1,8.8896275E-1,-9.1295785E-1,-5.1589483E-1,1.4622119E-1,-4.7759593E-1,-1.4742233E-1,3.5223538E-1,7.0034426E-1,1.0677972E0,-2.3210915E-2,-4.7719344E-2,-4.686923E-2,-1.8626342E-2,-4.163055E-2,1.8304532E-2,-3.16381E-2,-1.033048E-2,7.204505E-2,-1.0854739E-2,1.5287714E-2,5.8423635E-2,2.9116115E-2,4.8572525E-2,4.8840713E-2,5.8292713E-2],"categories":[],"categories_nodes":[],"categories_segments":[],"categories_sizes":[],"default_left":[0,0,0,0,0,0,0,0,0,0,0,0,0,0,0,0,0,0,0,0,0,0,0,0,0,0,0,0,0,0,0],"id":21,"left_children":[1,3,5,7,9,11,13,15,17,19,21,23,25,27,29,-1,-1,-1,-1,-1,-1,-1,-1,-1,-1,-1,-1,-1,-1,-1,-1],"loss_changes":[6.264504E2,3.0729706E1,1.2374155E2,2.0174957E1,3.1027351E1,2.8098108E1,1.689444E1,4.3004456E0,1.59603195E1,2.1022358E1,1.9911156E1,1.7885408E1,1.4381203E1,7.671898E0,1.2393494E0,0E0,0E0,0E0,0E0,0E0,0E0,0E0,0E0,0E0,0E0,0E0,0E0,0E0,0E0,0E0,0E0],"parents":[2147483647,0,0,1,1,2,2,3,3,4,4,5,5,6,6,7,7,8,8,9,9,10,10,11,11,12,12,13,13,14,14],"right_children":[2,4,6,8,10,12,14,16,18,20,22,24,26,28,30,-1,-1,-1,-1,-1,-1,-1,-1,-1,-1,-1,-1,-1,-1,-1,-1],"split_conditions":[4.83043E-2,1.4285715E-1,1.0268684E-1,2E0,1E0,2E-1,1.5875359E-1,-1.1E1,5.405042E-3,7.4170376E-3,-1E0,-1.2E1,6E0,6.666667E-1,2.1220084E-1,-2.3210915E-2,-4.7719344E-2,-4.686923E-2,-1.8626342E-2,-4.163055E-2,1.8304532E-2,-3.16381E-2,-1.033048E-2,7.204505E-2,-1.0854739E-2,1.5287714E-2,5.8423635E-2,2.9116115E-2,4.8572525E-2,4.8840713E-2,5.8292713E-2],"split_indices":[3,0,3,1,2,0,3,1,3,3,1,1,1,0,3,0,0,0,0,0,0,0,0,0,0,0,0,0,0,0,0],"split_type":[0,0,0,0,0,0,0,0,0,0,0,0,0,0,0,0,0,0,0,0,0,0,0,0,0,0,0,0,0,0,0],"sum_hessian":[2.1612458E3,1.093959E3,1.0672869E3,5.2305054E2,5.7090845E2,5.4526654E2,5.2202026E2,2.5415123E2,2.688993E2,9.52643E1,4.7564413E2,1.5779465E2,3.874719E2,2.5645297E2,2.655673E2,2.2512426E1,2.316388E2,6.6844345E1,2.0205495E2,1.6962492E1,7.830181E1,3.0160867E2,1.7403545E2,5.8038206E0,1.5199081E2,3.6789642E2,1.9575478E1,1.8086436E2,7.5588615E1,1.4343845E2,1.22128845E2],"tree_param":{"num_deleted":"0","num_feature":"4","num_nodes":"31","size_leaf_vector":"1"}},{"base_weights":[-3.3336645E-3,-3.8361552E-1,7.036721E-1,-5.568658E-1,-5.639474E-3,4.6710965E-1,9.835501E-1,-7.1919686E-1,-3.9485234E-1,-1.0941065E-1,7.0664316E-1,4.856311E-1,-6.40548E-2,8.889266E-1,1.1292628E0,-4.5207463E-2,-2.686061E-2,-3.7553837E-3,-2.9312918E-2,-1.4920317E-2,6.775318E-3,6.1001915E-2,6.767928E-3,2.1376923E-2,7.533348E-2,4.0123947E-2,5.3664256E-2,5.7955872E-2,3.595171E-2],"categories":[],"categories_nodes":[],"categories_segments":[],"categories_sizes":[],"default_left":[0,0,0,0,0,0,0,0,0,0,0,0,0,0,0,0,0,0,0,0,0,0,0,0,0,0,0,0,0],"id":22,"left_children":[1,3,5,7,9,11,13,15,17,19,21,23,-1,25,27,-1,-1,-1,-1,-1,-1,-1,-1,-1,-1,-1,-1,-1,-1],"loss_changes":[5.7420074E2,9.09359E1,4.899579E1,2.4759491E1,3.241353E1,1.3791115E1,3.701294E0,1.548291E1,2.9258919E1,1.7755722E1,1.6190498E1,2.326986E1,0E0,2.5109558E0,7.667084E-1,0E0,0E0,0E0,0E0,0E0,0E0,0E0,0E0,0E0,0E0,0E0,0E0,0E0,0E0],"parents":[2147483647,0,0,1,1,2,2,3,3,4,4,5,5,6,6,7,7,8,8,9,9,10,10,11,11,13,13,14,14],"right_children":[2,4,6,8,10,12,14,16,18,20,22,24,-1,26,28,-1,-1,-1,-1,-1,-1,-1,-1,-1,-1,-1,-1,-1,-1],"split_conditions":[7.4308544E-2,3.8833916E-2,1.3410251E-1,1.4285715E-1,6.666667E-1,8E0,2.0763007E-1,2E0,2E-1,2E0,-5E0,6E0,-6.40548E-2,2E0,3.397857E-1,-4.5207463E-2,-2.686061E-2,-3.7553837E-3,-2.9312918E-2,-1.4920317E-2,6.775318E-3,6.1001915E-2,6.767928E-3,2.1376923E-2,7.533348E-2,4.0123947E-2,5.3664256E-2,5.7955872E-2,3.595171E-2],"split_indices":[3,3,3,0,0,1,3,1,0,1,1,1,0,1,3,0,0,0,0,0,0,0,0,0,0,0,0,0,0],"split_type":[0,0,0,0,0,0,0,0,0,0,0,0,0,0,0,0,0,0,0,0,0,0,0,0,0,0,0,0,0],"sum_hessian":[2.1336711E3,1.3877113E3,7.4595996E2,9.512294E2,4.3648184E2,4.0570938E2,3.4025058E2,4.734312E2,4.7779816E2,3.8171664E2,5.4765217E1,4.0217078E2,3.5386105E0,2.1059457E2,1.29656E2,2.3283301E2,2.4059822E2,1.7943822E2,2.9835995E2,2.1533228E2,1.6638437E2,2.8245916E1,2.65193E1,3.8186313E2,2.0307627E1,1.4701189E2,6.3582687E1,1.1915863E2,1.049738E1],"tree_param":{"num_deleted":"0","num_feature":"4","num_nodes":"29","size_leaf_vector":"1"}},{"base_weights":[-3.200186E-3,-5.026773E-1,4.9741867E-1,-6.599318E-1,-3.269144E-1,1.8716747E-1,8.306856E-1,-8.1137836E-1,-4.608913E-1,-5.3936523E-1,-5.2139014E-2,-1.4503922E-1,3.2182756E-1,6.45621E-1,1.0115275E0,-4.278867E-2,-1.2329433E-2,-2.1879578E-3,-3.0965E-2,-1.730924E-5,-3.1111592E-2,1.2857853E-2,-2.072679E-2,6.728087E-2,-1.0612506E-2,1.713719E-2,-6.535006E-2,2.6504843E-2,4.573682E-2,4.5940828E-2,5.566997E-2],"categories":[],"categories_nodes":[],"categories_segments":[],"categories_sizes":[],"default_left":[0,0,0,0,0,0,0,0,0,0,0,0,0,0,0,0,0,0,0,0,0,0,0,0,0,0,0,0,0,0,0],"id":23,"left_children":[1,3,5,7,9,11,13,15,17,19,21,23,25,27,29,-1,-1,-1,-1,-1,-1,-1,-1,-1,-1,-1,-1,-1,-1,-1,-1],"loss_changes":[5.272614E2,2.8958374E1,1.0873355E2,1.638948E1,2.9183994E1,2.4502586E1,1.632956E1,7.6746674E0,1.6004093E1,1.2600426E1,2.468825E1,1.615259E1,1.3711464E1,7.397957E0,1.3842468E0,0E0,0E0,0E0,0E0,0E0,0E0,0E0,0E0,0E0,0E0,0E0,0E0,0E0,0E0,0E0,0E0],"parents":[2147483647,0,0,1,1,2,2,3,3,4,4,5,5,6,6,7,7,8,8,9,9,10,10,11,11,12,12,13,13,14,14],"right_children":[2,4,6,8,10,12,14,16,18,20,22,24,26,28,30,-1,-1,-1,-1,-1,-1,-1,-1,-1,-1,-1,-1,-1,-1,-1,-1],"split_conditions":[4.83043E-2,1.8507984E-2,1.0268684E-1,1.4285715E-1,2E0,2E-1,1.5875359E-1,6E0,3.0237632E-3,1E0,4E0,-1.2E1,8E0,6.666667E-1,2.1220084E-1,-4.278867E-2,-1.2329433E-2,-2.1879578E-3,-3.0965E-2,-1.730924E-5,-3.1111592E-2,1.2857853E-2,-2.072679E-2,6.728087E-2,-1.0612506E-2,1.713719E-2,-6.535006E-2,2.6504843E-2,4.573682E-2,4.5940828E-2,5.566997E-2],"split_indices":[3,3,3,0,1,0,3,1,3,2,1,1,1,0,3,0,0,0,0,0,0,0,0,0,0,0,0,0,0,0,0],"split_type":[0,0,0,0,0,0,0,0,0,0,0,0,0,0,0,0,0,0,0,0,0,0,0,0,0,0,0,0,0,0,0],"sum_hessian":[2.1066436E3,1.0545222E3,1.0521213E3,5.551114E2,4.994108E2,5.4568427E2,5.0643713E2,3.1349893E2,2.4161247E2,2.811039E2,2.1830688E2,1.5737146E2,3.8831277E2,2.5255502E2,2.5388213E2,2.9017468E2,2.3324255E1,6.685135E1,1.7476112E2,3.7591053E1,2.4351286E2,1.17939255E2,1.0036764E2,5.968847E0,1.5140262E2,3.8416913E2,4.143648E0,1.787795E2,7.3775536E1,1.3816281E2,1.15719315E2],"tree_param":{"num_deleted":"0","num_feature":"4","num_nodes":"31","size_leaf_vector":"1"}},{"base_weights":[-3.1440496E-3,-4.8670146E-1,4.7618946E-1,-6.623056E-1,-3.304812E-1,1.4674242E-1,7.7288604E-1,-8.730536E-1,-4.691027E-1,1.6412628E-1,-4.3294775E-1,4.6264537E-2,6.2017465E-1,5.9571105E-1,9.846918E-1,-1.9838031E-2,-4.590791E-2,-4.5201715E-2,-1.6371755E-2,-4.0066257E-2,1.8621458E-2,6.411233E-3,-2.5356174E-2,-7.986023E-4,4.027843E-2,3.548187E-2,-1.777021E-2,2.095165E-2,3.7066452E-2,4.4542536E-2,5.4441858E-2],"categories":[],"categories_nodes":[],"categories_segments":[],"categories_sizes":[],"default_left":[0,0,0,0,0,0,0,0,0,0,0,0,0,0,0,0,0,0,0,0,0,0,0,0,0,0,0,0,0,0,0],"id":24,"left_children":[1,3,5,7,9,11,13,15,17,19,21,23,25,27,29,-1,-1,-1,-1,-1,-1,-1,-1,-1,-1,-1,-1,-1,-1,-1,-1],"loss_changes":[4.8268365E2,2.8219711E1,1.0210922E2,1.942192E1,2.7976086E1,2.3603088E1,2.005371E1,4.6152344E0,1.54939995E1,1.9447136E1,1.9062332E1,1.943009E1,7.8361816E0,7.4596786E0,1.4634247E0,0E0,0E0,0E0,0E0,0E0,0E0,0E0,0E0,0E0,0E0,0E0,0E0,0E0,0E0,0E0,0E0],"parents":[2147483647,0,0,1,1,2,2,3,3,4,4,5,5,6,6,7,7,8,8,9,9,10,10,11,11,12,12,13,13,14,14],"right_children":[2,4,6,8,10,12,14,16,18,20,22,24,26,28,30,-1,-1,-1,-1,-1,-1,-1,-1,-1,-1,-1,-1,-1,-1,-1,-1],"split_conditions":[4.83043E-2,1.4285715E-1,9.5166065E-2,2E0,1E0,6.666667E-1,1.5875359E-1,-1.1E1,5.405042E-3,7.4170376E-3,1.0546173E-3,6E0,8.97398E-2,5E-1,2.1220084E-1,-1.9838031E-2,-4.590791E-2,-4.5201715E-2,-1.6371755E-2,-4.0066257E-2,1.8621458E-2,6.411233E-3,-2.5356174E-2,-7.986023E-4,4.027843E-2,3.548187E-2,-1.777021E-2,2.095165E-2,3.7066452E-2,4.4542536E-2,5.4441858E-2],"split_indices":[3,0,3,1,2,0,3,1,3,3,3,1,3,0,3,0,0,0,0,0,0,0,0,0,0,0,0,0,0,0,0],"split_type":[0,0,0,0,0,0,0,0,0,0,0,0,0,0,0,0,0,0,0,0,0,0,0,0,0,0,0,0,0,0,0],"sum_hessian":[2.0804604E3,1.0356594E3,1.044801E3,4.8605496E2,5.4960443E2,4.957846E2,5.490165E2,2.3078888E2,2.552661E2,9.42168E1,4.5538763E2,4.0989014E2,8.589445E1,3.0102353E2,2.4799294E2,2.0812325E1,2.0997655E2,6.1395462E1,1.9387064E2,1.6215157E1,7.800164E1,5.308061E1,4.02307E2,3.7974335E2,3.0146812E1,7.892907E1,6.9653745E0,1.3775871E2,1.6326482E2,1.3547546E2,1.1251748E2],"tree_param":{"num_deleted":"0","num_feature":"4","num_nodes":"31","size_leaf_vector":"1"}},{"base_weights":[-3.0798619E-3,-3.456617E-1,6.271816E-1,-5.4912204E-1,-7.196475E-2,4.0755457E-1,9.019368E-1,-7.067239E-1,-3.8444316E-1,-1.2272567E-1,8.3947223E-1,2.5200206E-1,6.2576497E-1,8.059174E-1,1.0551234E0,-4.4958796E-2,-2.594553E-2,-3.5319438E-3,-2.9577492E-2,-1.3593077E-2,3.7853196E-3,7.4830264E-2,1.53099345E-2,-5.4956326E-4,2.4104012E-2,3.367191E-2,-6.2559314E-2,3.588061E-2,4.9782258E-2,5.434224E-2,3.1542335E-2],"categories":[],"categories_nodes":[],"categories_segments":[],"categories_sizes":[],"default_left":[0,0,0,0,0,0,0,0,0,0,0,0,0,0,0,0,0,0,0,0,0,0,0,0,0,0,0,0,0,0,0],"id":25,"left_children":[1,3,5,7,9,11,13,15,17,19,21,23,25,27,29,-1,-1,-1,-1,-1,-1,-1,-1,-1,-1,-1,-1,-1,-1,-1,-1],"loss_changes":[4.440093E2,7.4148315E1,4.3330353E1,1.955751E1,2.643821E1,1.356469E1,3.8694153E0,1.3601288E1,2.4382797E1,1.600285E1,1.0109655E1,1.4388188E1,1.58374405E1,2.6610413E0,9.347992E-1,0E0,0E0,0E0,0E0,0E0,0E0,0E0,0E0,0E0,0E0,0E0,0E0,0E0,0E0,0E0,0E0],"parents":[2147483647,0,0,1,1,2,2,3,3,4,4,5,5,6,6,7,7,8,8,9,9,10,10,11,11,12,12,13,13,14,14],"right_children":[2,4,6,8,10,12,14,16,18,20,22,24,26,28,30,-1,-1,-1,-1,-1,-1,-1,-1,-1,-1,-1,-1,-1,-1,-1,-1],"split_conditions":[7.4308544E-2,3.023628E-2,1.3410251E-1,1.4285715E-1,7.5E-1,1E0,2.0763007E-1,2E0,2E-1,2E0,-6E0,5E-1,8E0,2E0,3.397857E-1,-4.4958796E-2,-2.594553E-2,-3.5319438E-3,-2.9577492E-2,-1.3593077E-2,3.7853196E-3,7.4830264E-2,1.53099345E-2,-5.4956326E-4,2.4104012E-2,3.367191E-2,-6.2559314E-2,3.588061E-2,4.9782258E-2,5.434224E-2,3.1542335E-2],"split_indices":[3,3,3,0,0,1,3,1,0,1,1,0,1,1,3,0,0,0,0,0,0,0,0,0,0,0,0,0,0,0,0],"split_type":[0,0,0,0,0,0,0,0,0,0,0,0,0,0,0,0,0,0,0,0,0,0,0,0,0,0,0,0,0,0,0],"sum_hessian":[2.054393E3,1.3312416E3,7.231516E2,7.630216E2,5.6822E2,4.03275E2,3.1987662E2,3.8820648E2,3.7481512E2,5.390631E2,2.9156849E1,2.3669823E2,1.6657675E2,2.0047632E2,1.1940028E2,1.8986476E2,1.9834174E2,1.4955424E2,2.2526088E2,3.0754846E2,2.3151465E2,1.2252322E1,1.6904528E1,1.1089301E2,1.25805214E2,1.6307594E2,3.5008123E0,1.4006705E2,6.0409267E1,1.0964123E2,9.75905E0],"tree_param":{"num_deleted":"0","num_feature":"4","num_nodes":"31","size_leaf_vector":"1"}},{"base_weights":[-2.9484858E-3,-4.5693433E-1,4.390293E-1,-6.1463565E-1,-2.8592226E-1,2.1580738E-1,8.2891035E-1,-6.495601E-1,2.935298E-1,-4.9307716E-1,-2.7365712E-2,-8.985835E-2,3.6890033E-1,6.5904677E-1,9.490215E-1,-3.8428806E-2,-2.4328776E-2,-1.7121188E-2,4.9951453E-2,1.2288224E-3,-2.879045E-2,1.3469889E-2,-1.9108862E-2,-2.0071626E-2,9.300018E-3,1.6300311E-2,5.3959455E-2,2.9533539E-2,5.344347E-2,4.2461146E-2,5.2161705E-2],"categories":[],"categories_nodes":[],"categories_segments":[],"categories_sizes":[],"default_left":[0,0,0,0,0,0,0,0,0,0,0,0,0,0,0,0,0,0,0,0,0,0,0,0,0,0,0,0,0,0,0],"id":26,"left_children":[1,3,5,7,9,11,13,15,17,19,21,23,25,27,29,-1,-1,-1,-1,-1,-1,-1,-1,-1,-1,-1,-1,-1,-1,-1,-1],"loss_changes":[4.076504E2,2.6852386E1,8.9412766E1,1.6700119E1,2.5839333E1,3.073009E1,7.0142517E0,9.355087E0,9.299531E0,1.1488098E1,2.2821482E1,1.8959126E1,1.2970589E1,3.806633E0,1.1550598E0,0E0,0E0,0E0,0E0,0E0,0E0,0E0,0E0,0E0,0E0,0E0,0E0,0E0,0E0,0E0,0E0],"parents":[2147483647,0,0,1,1,2,2,3,3,4,4,5,5,6,6,7,7,8,8,9,9,10,10,11,11,12,12,13,13,14,14],"right_children":[2,4,6,8,10,12,14,16,18,20,22,24,26,28,30,-1,-1,-1,-1,-1,-1,-1,-1,-1,-1,-1,-1,-1,-1,-1,-1],"split_conditions":[4.83043E-2,1.8507984E-2,1.21022664E-1,4.2857143E-1,2E0,2.5E-1,1.667133E-1,1.4285715E-1,-1E0,1E0,4E0,1E0,6E0,8.333333E-1,2.1220084E-1,-3.8428806E-2,-2.4328776E-2,-1.7121188E-2,4.9951453E-2,1.2288224E-3,-2.879045E-2,1.3469889E-2,-1.9108862E-2,-2.0071626E-2,9.300018E-3,1.6300311E-2,5.3959455E-2,2.9533539E-2,5.344347E-2,4.2461146E-2,5.2161705E-2],"split_indices":[3,3,3,0,1,0,3,0,1,2,1,1,1,0,3,0,0,0,0,0,0,0,0,0,0,0,0,0,0,0,0],"split_type":[0,0,0,0,0,0,0,0,0,0,0,0,0,0,0,0,0,0,0,0,0,0,0,0,0,0,0,0,0,0,0],"sum_hessian":[2.0296323E3,1.0011985E3,1.0284338E3,5.1952075E2,4.8167773E2,6.5498376E2,3.7344998E2,5.005561E2,1.896466E1,2.6691724E2,2.147605E2,2.1871333E2,4.3627045E2,1.5737468E2,2.1607532E2,2.8715305E2,2.1340305E2,1.0244587E1,8.720075E0,3.6877495E1,2.3003973E2,1.1707772E2,9.768278E1,1.024941E2,1.1621924E2,4.1280054E2,2.3469929E1,1.3696442E2,2.0410257E1,1.0978981E2,1.0628551E2],"tree_param":{"num_deleted":"0","num_feature":"4","num_nodes":"31","size_leaf_vector":"1"}},{"base_weights":[-2.8243677E-3,-3.2199928E-1,5.8146334E-1,-5.388928E-1,-9.2715435E-2,3.8586286E-1,8.710979E-1,-6.934592E-1,-3.6979792E-1,-1.3583674E-1,7.6775765E-1,2.3481254E-1,5.967519E-1,7.80139E-1,1.0215126E0,-4.682384E-2,-2.7286178E-2,-4.1859928E-3,-2.8397111E-2,-9.586181E-3,2.3754852E-2,7.1957774E-2,1.2357383E-2,-6.276572E-4,2.2133889E-2,3.2202847E-2,-6.3264854E-2,5.2423783E-2,3.6542643E-2,5.2940346E-2,2.8995072E-2],"categories":[],"categories_nodes":[],"categories_segments":[],"categories_sizes":[],"default_left":[0,0,0,0,0,0,0,0,0,0,0,0,0,0,0,0,0,0,0,0,0,0,0,0,0,0,0,0,0,0,0],"id":27,"left_children":[1,3,5,7,9,11,13,15,17,19,21,23,25,27,29,-1,-1,-1,-1,-1,-1,-1,-1,-1,-1,-1,-1,-1,-1,-1,-1],"loss_changes":[3.7443668E2,6.452402E1,3.984877E1,1.7178223E1,2.3570118E1,1.3404091E1,3.1041565E0,1.19600525E1,1.813145E1,2.0682528E1,1.0246012E1,1.2828821E1,1.6387886E1,1.6396332E0,1.1024094E0,0E0,0E0,0E0,0E0,0E0,0E0,0E0,0E0,0E0,0E0,0E0,0E0,0E0,0E0,0E0,0E0],"parents":[2147483647,0,0,1,1,2,2,3,3,4,4,5,5,6,6,7,7,8,8,9,9,10,10,11,11,12,12,13,13,14,14],"right_children":[2,4,6,8,10,12,14,16,18,20,22,24,26,28,30,-1,-1,-1,-1,-1,-1,-1,-1,-1,-1,-1,-1,-1,-1,-1,-1],"split_conditions":[7.4308544E-2,2.6493277E-2,1.4025117E-1,1.4285715E-1,7.5E-1,1E0,2.1220084E-1,5.8623287E-3,2E-1,6E0,-6E0,5E-1,8E0,1E0,3.397857E-1,-4.682384E-2,-2.7286178E-2,-4.1859928E-3,-2.8397111E-2,-9.586181E-3,2.3754852E-2,7.1957774E-2,1.2357383E-2,-6.276572E-4,2.2133889E-2,3.2202847E-2,-6.3264854E-2,5.2423783E-2,3.6542643E-2,5.2940346E-2,2.8995072E-2],"split_indices":[3,3,3,0,0,1,3,3,0,1,1,0,1,2,3,0,0,0,0,0,0,0,0,0,0,0,0,0,0,0,0],"split_type":[0,0,0,0,0,0,0,0,0,0,0,0,0,0,0,0,0,0,0,0,0,0,0,0,0,0,0,0,0,0,0],"sum_hessian":[2.0058074E3,1.2974868E3,7.083205E2,6.660651E2,6.3142175E2,4.2418536E2,2.8413513E2,3.4636157E2,3.1970355E2,6.02091E2,2.9330734E1,2.48389E2,1.7579637E2,1.8091725E2,1.0321789E2,1.2893355E2,2.1742801E2,1.314051E2,1.8829843E2,5.522579E2,4.9833145E1,1.2039626E1,1.729111E1,1.1384717E2,1.3454184E2,1.7207886E2,3.717514E0,2.4927464E1,1.5598979E2,9.389113E1,9.326762E0],"tree_param":{"num_deleted":"0","num_feature":"4","num_nodes":"31","size_leaf_vector":"1"}},{"base_weights":[-2.682627E-3,-4.2835182E-1,4.0477476E-1,-5.738503E-1,-2.438308E-1,1.6390572E-1,7.292823E-1,-8.029608E-1,-4.080813E-1,-1.365343E-2,-5.351027E-1,1.8882109E-1,-6.9389515E-2,5.505381E-1,8.886431E-1,-4.9304884E-2,-3.3655714E-2,2.205167E-2,-2.5332764E-2,-3.369302E-2,6.215229E-3,-4.3432724E-2,2.0480207E-3,5.990325E-3,6.663499E-2,2.4778852E-2,4.7047254E-2,3.9592765E-2,5.003499E-2],"categories":[],"categories_nodes":[],"categories_segments":[],"categories_sizes":[],"default_left":[0,0,0,0,0,0,0,0,0,0,0,0,0,0,0,0,0,0,0,0,0,0,0,0,0,0,0,0,0],"id":28,"left_children":[1,3,5,7,9,11,13,15,17,19,21,23,-1,25,27,-1,-1,-1,-1,-1,-1,-1,-1,-1,-1,-1,-1,-1,-1],"loss_changes":[3.442162E2,2.5918655E1,7.9138855E1,2.0255371E1,2.8799026E1,2.2812847E1,1.1807922E1,4.7217865E0,2.6712723E1,2.2036734E1,3.6473248E1,4.5229927E1,0E0,3.956192E0,1.6652374E0,0E0,0E0,0E0,0E0,0E0,0E0,0E0,0E0,0E0,0E0,0E0,0E0,0E0,0E0],"parents":[2147483647,0,0,1,1,2,2,3,3,4,4,5,5,6,6,7,7,8,8,9,9,10,10,11,11,13,13,14,14],"right_children":[2,4,6,8,10,12,14,16,18,20,22,24,-1,26,28,-1,-1,-1,-1,-1,-1,-1,-1,-1,-1,-1,-1,-1,-1],"split_conditions":[4.83043E-2,1E0,1.0747353E-1,1.6666667E-1,4E0,8E0,1.5875359E-1,9.391025E-3,1E0,5.8623287E-3,6E0,6E0,-6.9389515E-2,8.333333E-1,2.1220084E-1,-4.9304884E-2,-3.3655714E-2,2.205167E-2,-2.5332764E-2,-3.369302E-2,6.215229E-3,-4.3432724E-2,2.0480207E-3,5.990325E-3,6.663499E-2,2.4778852E-2,4.7047254E-2,3.9592765E-2,5.003499E-2],"split_indices":[3,1,3,0,1,1,3,3,2,3,1,1,0,0,3,0,0,0,0,0,0,0,0,0,0,0,0,0,0],"split_type":[0,0,0,0,0,0,0,0,0,0,0,0,0,0,0,0,0,0,0,0,0,0,0,0,0,0,0,0,0],"sum_hessian":[1.982618E3,9.696143E2,1.0130037E3,5.409526E2,4.2866174E2,5.822946E2,4.3070905E2,2.2547629E2,3.154763E2,2.400273E2,1.8863446E2,5.7395703E2,8.337638E0,2.0510802E2,2.2560104E2,9.080693E1,1.3466936E2,3.2452953E1,2.8302332E2,4.0815857E1,1.9921144E2,1.1914138E2,6.949309E1,5.423403E2,3.1616734E1,1.8178577E2,2.332224E1,1.25375694E2,1.0022535E2],"tree_param":{"num_deleted":"0","num_feature":"4","num_nodes":"29","size_leaf_vector":"1"}},{"base_weights":[-2.6590482E-3,-2.995057E-1,5.3908736E-1,-3.8513774E-1,2.283596E-1,3.5357672E-1,8.24749E-1,-6.0471207E-1,-2.1915743E-1,1.1641338E-1,7.593687E-1,7.292066E-1,2.7549627E-1,7.3288757E-1,9.8037255E-1,-3.6317244E-2,-2.2247536E-2,-2.1410972E-2,9.855544E-4,3.491702E-2,1.2526868E-3,7.232545E-2,1.2274377E-2,6.3173875E-2,2.976462E-2,3.1531905E-3,2.3642521E-2,5.0306465E-2,3.4157272E-2,5.0962128E-2,2.656028E-2],"categories":[],"categories_nodes":[],"categories_segments":[],"categories_sizes":[],"default_left":[0,0,0,0,0,0,0,0,0,0,0,0,0,0,0,0,0,0,0,0,0,0,0,0,0,0,0,0,0,0,0],"id":29,"left_children":[1,3,5,7,9,11,13,15,17,19,21,23,25,27,29,-1,-1,-1,-1,-1,-1,-1,-1,-1,-1,-1,-1,-1,-1,-1,-1],"loss_changes":[3.1560324E2,5.7395958E1,3.652266E1,3.9637222E1,1.0468315E1,1.2203369E1,3.1809082E0,8.794434E0,3.112124E1,7.842904E0,1.0499245E1,4.411812E0,1.4717262E1,1.6977539E0,1.1745377E0,0E0,0E0,0E0,0E0,0E0,0E0,0E0,0E0,0E0,0E0,0E0,0E0,0E0,0E0,0E0,0E0],"parents":[2147483647,0,0,1,1,2,2,3,3,4,4,5,5,6,6,7,7,8,8,9,9,10,10,11,11,12,12,13,13,14,14],"right_children":[2,4,6,8,10,12,14,16,18,20,22,24,26,28,30,-1,-1,-1,-1,-1,-1,-1,-1,-1,-1,-1,-1,-1,-1,-1,-1],"split_conditions":[7.4308544E-2,4.2857143E-1,1.4025117E-1,1.8507984E-2,7.5E-1,1E0,2.1220084E-1,1.4285715E-1,2E0,1E0,-6E0,1.25E-1,5E-1,1E0,3.397857E-1,-3.6317244E-2,-2.2247536E-2,-2.1410972E-2,9.855544E-4,3.491702E-2,1.2526868E-3,7.232545E-2,1.2274377E-2,6.3173875E-2,2.976462E-2,3.1531905E-3,2.3642521E-2,5.0306465E-2,3.4157272E-2,5.0962128E-2,2.656028E-2],"split_indices":[3,0,3,3,0,2,3,0,1,2,1,0,0,2,3,0,0,0,0,0,0,0,0,0,0,0,0,0,0,0,0],"split_type":[0,0,0,0,0,0,0,0,0,0,0,0,0,0,0,0,0,0,0,0,0,0,0,0,0,0,0,0,0,0,0],"sum_hessian":[1.9605123E3,1.2668156E3,6.936968E2,1.090226E3,1.7658958E2,4.2193015E2,2.717666E2,4.6820157E2,6.2202435E2,1.4685017E2,2.9739408E1,7.117617E1,3.50754E2,1.7448248E2,9.728413E1,2.6380765E2,2.0439392E2,3.3128506E2,2.9073932E2,1.9024881E1,1.2782529E2,1.1948075E1,1.7791334E1,1.2574267E1,5.8601902E1,1.695594E2,1.811946E2,2.3910631E1,1.5057185E2,8.836777E1,8.916359E0],"tree_param":{"num_deleted":"0","num_feature":"4","num_nodes":"31","size_leaf_vector":"1"}},{"base_weights":[-2.4286166E-3,-4.0109184E-1,3.7338027E-1,-5.369656E-1,-2.1157913E-1,1.805206E-1,7.349312E-1,-7.9043376E-1,-3.5875356E-1,4.8876923E-2,-5.099725E-1,-9.759368E-2,3.1979027E-1,6.05787E-1,8.9713913E-1,-1.5643647E-2,-4.164402E-2,2.3127725E-2,-2.3078246E-2,-3.4961578E-2,9.947467E-3,-4.2317566E-2,2.566421E-3,-1.9011253E-2,7.438091E-3,1.6832067E-2,-6.2472183E-2,2.4351148E-2,3.8741816E-2,3.9448515E-2,5.118065E-2],"categories":[],"categories_nodes":[],"categories_segments":[],"categories_sizes":[],"default_left":[0,0,0,0,0,0,0,0,0,0,0,0,0,0,0,0,0,0,0,0,0,0,0,0,0,0,0,0,0,0,0],"id":30,"left_children":[1,3,5,7,9,11,13,15,17,19,21,23,25,27,29,-1,-1,-1,-1,-1,-1,-1,-1,-1,-1,-1,-1,-1,-1,-1,-1],"loss_changes":[2.9076785E2,2.4136124E1,6.9527725E1,2.4463135E1,3.071595E1,2.5316944E1,6.729706E0,4.3071747E0,2.7530312E1,2.3914255E1,3.4809715E1,1.52768955E1,1.1929447E1,3.5653305E0,1.2693787E0,0E0,0E0,0E0,0E0,0E0,0E0,0E0,0E0,0E0,0E0,0E0,0E0,0E0,0E0,0E0,0E0],"parents":[2147483647,0,0,1,1,2,2,3,3,4,4,5,5,6,6,7,7,8,8,9,9,10,10,11,11,12,12,13,13,14,14],"right_children":[2,4,6,8,10,12,14,16,18,20,22,24,26,28,30,-1,-1,-1,-1,-1,-1,-1,-1,-1,-1,-1,-1,-1,-1,-1,-1],"split_conditions":[4.83043E-2,2E0,1.21022664E-1,1.6666667E-1,4E0,2.5E-1,1.8323237E-1,-1.1E1,1E0,5.8623287E-3,6E0,1E0,8E0,1E0,7.5E-1,-1.5643647E-2,-4.164402E-2,2.3127725E-2,-2.3078246E-2,-3.4961578E-2,9.947467E-3,-4.2317566E-2,2.566421E-3,-1.9011253E-2,7.438091E-3,1.6832067E-2,-6.2472183E-2,2.4351148E-2,3.8741816E-2,3.9448515E-2,5.118065E-2],"split_indices":[3,1,3,0,1,0,3,1,2,3,1,1,1,1,0,0,0,0,0,0,0,0,0,0,0,0,0,0,0,0,0],"split_type":[0,0,0,0,0,0,0,0,0,0,0,0,0,0,0,0,0,0,0,0,0,0,0,0,0,0,0,0,0,0,0],"sum_hessian":[1.9387664E3,9.407444E2,9.980219E2,5.468438E2,3.939006E2,6.518234E2,3.4619846E2,2.2433723E2,3.2250656E2,2.1076671E2,1.8313391E2,2.1759561E2,4.3422784E2,1.9537917E2,1.5081929E2,1.8995275E1,2.0534196E2,3.5490635E1,2.8701593E2,3.4604507E1,1.761622E2,1.14192375E2,6.894153E1,1.010838E2,1.1651181E2,4.303916E2,3.8362389E0,1.1703691E2,7.834226E1,8.5193954E1,6.562534E1],"tree_param":{"num_deleted":"0","num_feature":"4","num_nodes":"31","size_leaf_vector":"1"}},{"base_weights":[-2.4389196E-3,-3.8732857E-1,3.573126E-1,-5.627156E-1,-2.4247237E-1,1.23742916E-1,6.408907E-1,-8.9741725E-1,-4.3610567E-1,-3.932744E-1,3.919468E-2,1.4714864E-1,-6.6935755E-2,4.7563013E-1,8.241198E-1,-3.135512E-2,-4.870207E-2,-3.4838885E-2,-1.228132E-2,8.557484E-3,-2.4781201E-2,6.7635113E-3,-5.6070294E-2,3.9882152E-3,6.451034E-2,1.8433096E-2,3.690879E-2,3.6254402E-2,4.712853E-2],"categories":[],"categories_nodes":[],"categories_segments":[],"categories_sizes":[],"default_left":[0,0,0,0,0,0,0,0,0,0,0,0,0,0,0,0,0,0,0,0,0,0,0,0,0,0,0,0,0],"id":31,"left_children":[1,3,5,7,9,11,13,15,17,19,21,23,-1,25,27,-1,-1,-1,-1,-1,-1,-1,-1,-1,-1,-1,-1,-1,-1],"loss_changes":[2.6583386E2,2.3428162E1,6.564884E1,1.7355606E1,2.1666819E1,1.8865677E1,1.3172302E1,1.7503052E0,1.5012482E1,1.9268597E1,2.0072496E1,4.1313095E1,0E0,6.408764E0,1.7923889E0,0E0,0E0,0E0,0E0,0E0,0E0,0E0,0E0,0E0,0E0,0E0,0E0,0E0,0E0],"parents":[2147483647,0,0,1,1,2,2,3,3,4,4,5,5,6,6,7,7,8,8,9,9,10,10,11,11,13,13,14,14],"right_children":[2,4,6,8,10,12,14,16,18,20,22,24,-1,26,28,-1,-1,-1,-1,-1,-1,-1,-1,-1,-1,-1,-1,-1,-1],"split_conditions":[4.83043E-2,1.4285715E-1,1.0268684E-1,5.8623287E-3,1E0,8E0,1.5875359E-1,1E0,2E0,3.0237632E-3,8E0,6E0,-6.6935755E-2,6.666667E-1,2.1220084E-1,-3.135512E-2,-4.870207E-2,-3.4838885E-2,-1.228132E-2,8.557484E-3,-2.4781201E-2,6.7635113E-3,-5.6070294E-2,3.9882152E-3,6.451034E-2,1.8433096E-2,3.690879E-2,3.6254402E-2,4.712853E-2],"split_indices":[3,0,3,3,1,1,3,2,1,3,1,1,0,0,3,0,0,0,0,0,0,0,0,0,0,0,0,0,0],"split_type":[0,0,0,0,0,0,0,0,0,0,0,0,0,0,0,0,0,0,0,0,0,0,0,0,0,0,0,0,0],"sum_hessian":[1.9178689E3,9.26525E2,9.913439E2,4.1779193E2,5.087331E2,5.443913E2,4.4695258E2,1.1299478E2,3.0479715E2,3.310797E2,1.7765338E2,5.367011E2,7.690184E0,2.3688957E2,2.10063E2,2.6984142E1,8.601064E1,1.2756527E2,1.7723187E2,5.0717476E1,2.8036224E2,1.6488731E2,1.2766071E1,5.0783362E2,2.8867487E1,1.7002214E2,6.686743E1,1.1828838E2,9.177463E1],"tree_param":{"num_deleted":"0","num_feature":"4","num_nodes":"29","size_leaf_vector":"1"}},{"base_weights":[-2.4303899E-3,-2.6860648E-1,4.8178092E-1,-5.266563E-1,-1.13351606E-1,3.1101283E-1,7.60262E-1,-5.634852E-1,3.3876E-1,-1.6965573E-1,4.2083535E-1,1.709772E-1,5.077205E-1,6.671998E-1,9.237677E-1,-3.428061E-2,-2.0500664E-2,-1.4106828E-2,4.8722178E-2,-1.8055204E-2,1.4360911E-3,4.3373197E-2,3.096602E-3,4.6080813E-2,5.4273903E-3,2.7500657E-2,-5.934471E-2,4.755224E-2,3.0808559E-2,4.8283905E-2,2.2792516E-2],"categories":[],"categories_nodes":[],"categories_segments":[],"categories_sizes":[],"default_left":[0,0,0,0,0,0,0,0,0,0,0,0,0,0,0,0,0,0,0,0,0,0,0,0,0,0,0,0,0,0,0],"id":32,"left_children":[1,3,5,7,9,11,13,15,17,19,21,23,25,27,29,-1,-1,-1,-1,-1,-1,-1,-1,-1,-1,-1,-1,-1,-1,-1,-1],"loss_changes":[2.4482417E2,4.9047646E1,3.180687E1,1.4857414E1,2.312755E1,1.1465248E1,3.270401E0,7.9987793E0,7.935177E0,2.6375114E1,1.1709001E1,1.1450621E1,1.3115425E1,1.8239212E0,1.325737E0,0E0,0E0,0E0,0E0,0E0,0E0,0E0,0E0,0E0,0E0,0E0,0E0,0E0,0E0,0E0,0E0],"parents":[2147483647,0,0,1,1,2,2,3,3,4,4,5,5,6,6,7,7,8,8,9,9,10,10,11,11,12,12,13,13,14,14],"right_children":[2,4,6,8,10,12,14,16,18,20,22,24,26,28,30,-1,-1,-1,-1,-1,-1,-1,-1,-1,-1,-1,-1,-1,-1,-1,-1],"split_conditions":[7.4308544E-2,1.8507984E-2,1.4025117E-1,4.2857143E-1,6E-1,1E0,2.1220084E-1,1.4285715E-1,-1E0,1E0,-5E0,-1E1,8E0,1E0,3.397857E-1,-3.428061E-2,-2.0500664E-2,-1.4106828E-2,4.8722178E-2,-1.8055204E-2,1.4360911E-3,4.3373197E-2,3.096602E-3,4.6080813E-2,5.4273903E-3,2.7500657E-2,-5.934471E-2,4.755224E-2,3.0808559E-2,4.8283905E-2,2.2792516E-2],"split_indices":[3,3,3,0,0,1,3,0,1,1,1,1,1,2,3,0,0,0,0,0,0,0,0,0,0,0,0,0,0,0,0],"split_type":[0,0,0,0,0,0,0,0,0,0,0,0,0,0,0,0,0,0,0,0,0,0,0,0,0,0,0,0,0,0,0],"sum_hessian":[1.8975442E3,1.2247379E3,6.728062E2,4.5916522E2,7.6557275E2,4.1837207E2,2.5443413E2,4.4075714E2,1.8408089E1,6.9319165E2,7.238106E1,2.4548274E2,1.7288933E2,1.6538364E2,8.905048E1,2.4351227E2,1.9724486E2,9.593711E0,8.814377E0,3.5233917E2,3.4085248E2,3.1617918E1,4.0763145E1,1.7792048E1,2.276907E2,1.6933856E2,3.5507689E0,2.251383E1,1.4286981E2,8.075376E1,8.296726E0],"tree_param":{"num_deleted":"0","num_feature":"4","num_nodes":"31","size_leaf_vector":"1"}},{"base_weights":[-2.274554E-3,-3.6188754E-1,3.293812E-1,-5.6689665E-2,-4.4355935E-1,1.564739E-1,6.708747E-1,-5.7398844E-1,1.7165564E-1,-6.08598E-1,-3.203625E-1,1.400945E-2,3.994832E-1,5.2900356E-1,8.2156587E-1,-3.0692086E-2,7.803651E-3,-3.349799E-3,2.6075212E-2,-4.793481E-2,-2.3911493E-2,1.3963967E-2,-2.007494E-2,-9.276563E-3,1.1079067E-2,4.14288E-2,1.3255416E-2,1.9527117E-2,3.829932E-2,3.5373475E-2,4.702559E-2],"categories":[],"categories_nodes":[],"categories_segments":[],"categories_sizes":[],"default_left":[0,0,0,0,0,0,0,0,0,0,0,0,0,0,0,0,0,0,0,0,0,0,0,0,0,0,0,0,0,0,0],"id":33,"left_children":[1,3,5,7,9,11,13,15,17,19,21,23,25,27,29,-1,-1,-1,-1,-1,-1,-1,-1,-1,-1,-1,-1,-1,-1,-1,-1],"loss_changes":[2.2423088E2,2.2458435E1,5.764586E1,2.2727232E1,1.4270218E1,2.2518335E1,6.5872803E0,1.809412E0,1.1195569E1,1.3369621E1,2.0033962E1,1.7072062E1,1.3642479E1,5.3441925E0,1.4716492E0,0E0,0E0,0E0,0E0,0E0,0E0,0E0,0E0,0E0,0E0,0E0,0E0,0E0,0E0,0E0,0E0],"parents":[2147483647,0,0,1,1,2,2,3,3,4,4,5,5,6,6,7,7,8,8,9,9,10,10,11,11,12,12,13,13,14,14],"right_children":[2,4,6,8,10,12,14,16,18,20,22,24,26,28,30,-1,-1,-1,-1,-1,-1,-1,-1,-1,-1,-1,-1,-1,-1,-1,-1],"split_conditions":[4.83043E-2,1E0,1.21022664E-1,9.813398E-3,1.4285715E-1,5E-1,6.666667E-1,4.2857143E-1,1.6666667E-1,5.8623287E-3,1.0546173E-3,1E0,-6E0,2E0,2.0266695E-1,-3.0692086E-2,7.803651E-3,-3.349799E-3,2.6075212E-2,-4.793481E-2,-2.3911493E-2,1.3963967E-2,-2.007494E-2,-9.276563E-3,1.1079067E-2,4.14288E-2,1.3255416E-2,1.9527117E-2,3.829932E-2,3.5373475E-2,4.702559E-2],"split_indices":[3,2,3,3,0,0,0,0,0,3,3,1,1,1,3,0,0,0,0,0,0,0,0,0,0,0,0,0,0,0,0],"split_type":[0,0,0,0,0,0,0,0,0,0,0,0,0,0,0,0,0,0,0,0,0,0,0,0,0,0,0,0,0,0,0],"sum_hessian":[1.878064E3,9.010107E2,9.7705334E2,1.9056941E2,7.104412E2,6.4960114E2,3.274522E2,5.789624E1,1.3267317E2,3.0197092E2,4.0847034E2,4.1018652E2,2.3941463E2,1.7098528E2,1.5646695E2,5.5050293E1,2.8459463E0,7.93515E1,5.3321674E1,8.0211754E1,2.2175914E2,4.8391132E1,3.6007922E2,2.091933E2,2.0099321E2,5.586322E1,1.835514E2,1.09598465E2,6.1386803E1,8.340773E1,7.305922E1],"tree_param":{"num_deleted":"0","num_feature":"4","num_nodes":"31","size_leaf_vector":"1"}},{"base_weights":[-2.1705083E-3,-2.4922733E-1,4.4636485E-1,-4.989856E-1,-1.0285945E-1,2.8476062E-1,7.200141E-1,-5.357135E-1,3.2482007E-1,-7.742674E-2,-6.052366E-2,6.42205E-1,2.1042792E-1,6.259933E-1,8.8914466E-1,-3.283238E-2,-1.9428656E-2,-1.3226357E-2,4.4943593E-2,-7.222045E-3,4.6299107E-2,5.7851132E-2,2.5674513E-2,1.0886071E-3,1.9463753E-2,4.573193E-2,2.8733676E-2,4.6649132E-2,2.0595936E-2],"categories":[],"categories_nodes":[],"categories_segments":[],"categories_sizes":[],"default_left":[0,0,0,0,0,0,0,0,0,0,0,0,0,0,0,0,0,0,0,0,0,0,0,0,0,0,0,0,0],"id":34,"left_children":[1,3,5,7,9,11,13,15,17,19,-1,21,23,25,27,-1,-1,-1,-1,-1,-1,-1,-1,-1,-1,-1,-1,-1,-1],"loss_changes":[2.062442E2,4.3821327E1,2.9028305E1,1.3583321E1,2.1257263E1,1.0951431E1,3.3358994E0,7.301155E0,6.847748E0,5.0027695E1,0E0,4.133627E0,1.1696638E1,1.8549271E0,1.395607E0,0E0,0E0,0E0,0E0,0E0,0E0,0E0,0E0,0E0,0E0,0E0,0E0,0E0,0E0],"parents":[2147483647,0,0,1,1,2,2,3,3,4,4,5,5,6,6,7,7,8,8,9,9,11,11,12,12,13,13,14,14],"right_children":[2,4,6,8,10,12,14,16,18,20,-1,22,24,26,28,-1,-1,-1,-1,-1,-1,-1,-1,-1,-1,-1,-1,-1,-1],"split_conditions":[7.4308544E-2,1.8507984E-2,1.4025117E-1,4.2857143E-1,8E0,1E0,2.1220084E-1,1.4285715E-1,-1E0,6E0,-6.052366E-2,1.25E-1,5E-1,1E0,3.397857E-1,-3.283238E-2,-1.9428656E-2,-1.3226357E-2,4.4943593E-2,-7.222045E-3,4.6299107E-2,5.7851132E-2,2.5674513E-2,1.0886071E-3,1.9463753E-2,4.573193E-2,2.8733676E-2,4.6649132E-2,2.0595936E-2],"split_indices":[3,3,3,0,1,2,3,0,1,1,0,0,0,2,3,0,0,0,0,0,0,0,0,0,0,0,0,0,0],"split_type":[0,0,0,0,0,0,0,0,0,0,0,0,0,0,0,0,0,0,0,0,0,0,0,0,0,0,0,0,0],"sum_hessian":[1.8591754E3,1.1991296E3,6.600458E2,4.42186E2,7.5694366E2,4.162619E2,2.4378387E2,4.2364813E2,1.853787E1,7.4099896E2,1.5944705E1,7.034648E1,3.459154E2,1.5970444E2,8.407944E1,2.3063081E2,1.9301733E2,9.413127E0,9.124744E0,6.9541095E2,4.5588013E1,1.2472294E1,5.7874187E1,1.6888736E2,1.7702806E2,2.1568916E1,1.3813551E2,7.6131035E1,7.9484024E0],"tree_param":{"num_deleted":"0","num_feature":"4","num_nodes":"29","size_leaf_vector":"1"}},{"base_weights":[-2.0067694E-3,-3.3799964E-1,3.0425057E-1,-4.725458E-1,-1.56554E-1,8.0058195E-2,5.380508E-1,-7.3347324E-1,-3.0097562E-1,1.008938E-1,-4.5897448E-1,-1.8824764E-1,1.9420724E-1,3.936456E-1,7.457972E-1,-1.09514585E-2,-3.903464E-2,2.3688866E-2,-2.0184238E-2,-3.1513657E-2,1.165811E-2,-4.0348414E-2,4.8316275E-3,6.459787E-2,-1.2849304E-2,7.77496E-3,4.4276487E-2,1.756831E-2,4.9115162E-2,3.2266717E-2,4.3578826E-2],"categories":[],"categories_nodes":[],"categories_segments":[],"categories_sizes":[],"default_left":[0,0,0,0,0,0,0,0,0,0,0,0,0,0,0,0,0,0,0,0,0,0,0,0,0,0,0,0,0,0,0],"id":35,"left_children":[1,3,5,7,9,11,13,15,17,19,21,23,25,27,29,-1,-1,-1,-1,-1,-1,-1,-1,-1,-1,-1,-1,-1,-1,-1,-1],"loss_changes":[1.8972565E2,2.13899E1,5.0516388E1,2.2357803E1,2.930922E1,1.5153382E1,1.386615E1,4.672287E0,2.4538893E1,1.9860529E1,3.3529232E1,1.537265E1,9.141422E0,6.6375732E0,1.869133E0,0E0,0E0,0E0,0E0,0E0,0E0,0E0,0E0,0E0,0E0,0E0,0E0,0E0,0E0,0E0,0E0],"parents":[2147483647,0,0,1,1,2,2,3,3,4,4,5,5,6,6,7,7,8,8,9,9,10,10,11,11,12,12,13,13,14,14],"right_children":[2,4,6,8,10,12,14,16,18,20,22,24,26,28,30,-1,-1,-1,-1,-1,-1,-1,-1,-1,-1,-1,-1,-1,-1,-1,-1],"split_conditions":[4.83043E-2,2E0,9.5166065E-2,1.6666667E-1,4E0,2E-1,1.5875359E-1,-1.1E1,1E0,5.8623287E-3,6E0,-1.2E1,6E0,8.5714287E-1,2.1220084E-1,-1.09514585E-2,-3.903464E-2,2.3688866E-2,-2.0184238E-2,-3.1513657E-2,1.165811E-2,-4.0348414E-2,4.8316275E-3,6.459787E-2,-1.2849304E-2,7.77496E-3,4.4276487E-2,1.756831E-2,4.9115162E-2,3.2266717E-2,4.3578826E-2],"split_indices":[3,1,3,0,1,0,3,1,2,3,1,1,1,0,3,0,0,0,0,0,0,0,0,0,0,0,0,0,0,0,0],"split_type":[0,0,0,0,0,0,0,0,0,0,0,0,0,0,0,0,0,0,0,0,0,0,0,0,0,0,0,0,0,0,0],"sum_hessian":[1.8417821E3,8.7820526E2,9.635768E2,5.03353E2,3.748523E2,4.925807E2,4.709961E2,1.9837906E2,3.0497394E2,2.0284152E2,1.7201077E2,1.468239E2,3.457568E2,2.795647E2,1.914314E2,1.715193E1,1.8122713E2,3.5275074E1,2.6969885E2,3.0496222E1,1.7234529E2,1.0548798E2,6.652278E1,5.725985E0,1.4109792E2,3.285839E2,1.7172909E1,2.623208E2,1.7243883E1,1.0983457E2,8.159683E1],"tree_param":{"num_deleted":"0","num_feature":"4","num_nodes":"31","size_leaf_vector":"1"}},{"base_weights":[-1.924218E-3,-1.9545928E-1,4.8957795E-1,-3.9659E-1,-7.1112644E-3,3.528116E-1,7.2628444E-1,-7.415959E-2,-4.8486915E-1,-7.174919E-2,4.4636732E-1,7.2405016E-1,2.7270678E-1,6.253709E-1,8.541009E-1,-2.6760409E-2,1.18739E-2,-2.5148282E-2,4.1959416E-2,-2.3926266E-3,-6.130252E-2,-3.1241326E-2,2.6425958E-2,3.001579E-2,5.2490782E-2,4.2460766E-3,2.0744612E-2,-3.4395542E-2,3.2625046E-2,4.499604E-2,1.847519E-2],"categories":[],"categories_nodes":[],"categories_segments":[],"categories_sizes":[],"default_left":[0,0,0,0,0,0,0,0,0,0,0,0,0,0,0,0,0,0,0,0,0,0,0,0,0,0,0,0,0,0,0],"id":36,"left_children":[1,3,5,7,9,11,13,15,17,19,21,23,25,27,29,-1,-1,-1,-1,-1,-1,-1,-1,-1,-1,-1,-1,-1,-1,-1,-1],"loss_changes":[1.7367017E2,4.96208E1,1.6442207E1,1.799456E1,1.9890284E1,9.582241E0,1.8900528E0,1.9859653E1,1.2333366E1,1.6321304E1,7.780182E0,1.6980953E0,7.229912E0,4.3238716E0,1.4479256E0,0E0,0E0,0E0,0E0,0E0,0E0,0E0,0E0,0E0,0E0,0E0,0E0,0E0,0E0,0E0,0E0],"parents":[2147483647,0,0,1,1,2,2,3,3,4,4,5,5,6,6,7,7,8,8,9,9,10,10,11,11,12,12,13,13,14,14],"right_children":[2,4,6,8,10,12,14,16,18,20,22,24,26,28,30,-1,-1,-1,-1,-1,-1,-1,-1,-1,-1,-1,-1,-1,-1,-1,-1],"split_conditions":[8.824452E-2,3.023628E-2,1.5875359E-1,1E0,6.25E-1,1E0,2.1220084E-1,9.813398E-3,6E-1,8E0,4.2302582E-2,5E0,5E-1,-1.1E1,3.397857E-1,-2.6760409E-2,1.18739E-2,-2.5148282E-2,4.1959416E-2,-2.3926266E-3,-6.130252E-2,-3.1241326E-2,2.6425958E-2,3.001579E-2,5.2490782E-2,4.2460766E-3,2.0744612E-2,-3.4395542E-2,3.2625046E-2,4.499604E-2,1.847519E-2],"split_indices":[3,3,3,2,0,2,3,3,0,1,3,1,0,1,3,0,0,0,0,0,0,0,0,0,0,0,0,0,0,0,0],"split_type":[0,0,0,0,0,0,0,0,0,0,0,0,0,0,0,0,0,0,0,0,0,0,0,0,0,0,0,0,0,0,0],"sum_hessian":[1.8237391E3,1.3089329E3,5.148062E2,6.324522E2,6.764807E2,3.2786185E2,1.8694438E2,1.3633673E2,4.9611545E2,5.9282275E2,8.365798E1,5.6762474E1,2.7109937E2,1.0775919E2,7.918518E1,5.4697605E1,8.163913E1,4.9003802E2,6.077437E0,5.818192E2,1.1003526E1,5.4883647E0,7.816962E1,4.3197643E1,1.3564828E1,1.1750588E2,1.5359349E2,1.6880784E0,1.0607111E2,7.156178E1,7.6234026E0],"tree_param":{"num_deleted":"0","num_feature":"4","num_nodes":"31","size_leaf_vector":"1"}},{"base_weights":[-1.8119972E-3,-2.5695953E-1,3.433328E-1,-4.664126E-1,-1.1851276E-1,2.0697464E-1,6.623349E-1,-8.419966E-1,-3.5297137E-1,-2.605896E-1,1.2665671E-1,2.2745578E-1,-6.629143E-2,5.6900555E-1,8.3707094E-1,-2.6792182E-2,-4.6625305E-2,-2.9655857E-2,-9.348157E-3,-1.6170528E-2,1.8385997E-2,1.0324875E-2,-5.5646326E-2,8.77549E-3,6.06423E-2,4.329632E-2,2.585294E-2,4.416923E-2,1.7855497E-2],"categories":[],"categories_nodes":[],"categories_segments":[],"categories_sizes":[],"default_left":[0,0,0,0,0,0,0,0,0,0,0,0,0,0,0,0,0,0,0,0,0,0,0,0,0,0,0,0,0],"id":37,"left_children":[1,3,5,7,9,11,13,15,17,19,21,23,-1,25,27,-1,-1,-1,-1,-1,-1,-1,-1,-1,-1,-1,-1,-1,-1],"loss_changes":[1.592677E2,3.0098473E1,3.330085E1,1.7319351E1,2.1886612E1,1.7253344E1,3.2702637E0,2.1380768E0,1.2617443E1,1.5809828E1,2.3077261E1,2.7106167E1,0E0,1.9102211E0,1.4153214E0,0E0,0E0,0E0,0E0,0E0,0E0,0E0,0E0,0E0,0E0,0E0,0E0,0E0,0E0],"parents":[2147483647,0,0,1,1,2,2,3,3,4,4,5,5,6,6,7,7,8,8,9,9,10,10,11,11,13,13,14,14],"right_children":[2,4,6,8,10,12,14,16,18,20,22,24,-1,26,28,-1,-1,-1,-1,-1,-1,-1,-1,-1,-1,-1,-1,-1,-1],"split_conditions":[6.204923E-2,1.4285715E-1,1.4025117E-1,5.8623287E-3,1E0,8E0,2.1220084E-1,1E0,2E0,6E-1,8E0,6E0,-6.629143E-2,1E0,3.397857E-1,-2.6792182E-2,-4.6625305E-2,-2.9655857E-2,-9.348157E-3,-1.6170528E-2,1.8385997E-2,1.0324875E-2,-5.5646326E-2,8.77549E-3,6.06423E-2,4.329632E-2,2.585294E-2,4.416923E-2,1.7855497E-2],"split_indices":[3,0,3,3,1,1,3,2,1,0,1,1,0,2,3,0,0,0,0,0,0,0,0,0,0,0,0,0,0],"split_type":[0,0,0,0,0,0,0,0,0,0,0,0,0,0,0,0,0,0,0,0,0,0,0,0,0,0,0,0,0],"sum_hessian":[1.8065668E3,1.0388528E3,7.6771405E2,4.124688E2,6.26384E2,5.3897626E2,2.2873781E2,9.419229E1,3.1827652E2,3.9653006E2,2.2985391E2,5.3270984E2,6.266399E0,1.5187517E2,7.686264E1,2.3071623E1,7.112067E1,1.290383E2,1.8923822E2,3.6092825E2,3.5601795E1,2.1672801E2,1.3125899E1,5.0715283E2,2.5557035E1,2.0281168E1,1.31594E2,6.9331955E1,7.530686E0],"tree_param":{"num_deleted":"0","num_feature":"4","num_nodes":"29","size_leaf_vector":"1"}},{"base_weights":[-1.7947997E-3,-1.8080424E-1,4.556577E-1,-4.3549922E-1,-4.8127327E-2,3.254671E-1,6.8917876E-1,-8.306227E-1,-3.306438E-1,-2.607896E-2,-5.8515128E-2,6.797367E-1,2.4970247E-1,6.105449E-1,8.649045E-1,-2.608927E-2,-4.6179265E-2,-2.7544225E-2,-8.856451E-3,-3.750297E-3,7.929134E-2,2.821461E-2,4.9508747E-2,1.0246017E-2,4.1907042E-2,3.307326E-2,-6.082819E-3,3.853705E-2,5.1593777E-2],"categories":[],"categories_nodes":[],"categories_segments":[],"categories_sizes":[],"default_left":[0,0,0,0,0,0,0,0,0,0,0,0,0,0,0,0,0,0,0,0,0,0,0,0,0,0,0,0,0],"id":38,"left_children":[1,3,5,7,9,11,13,15,17,19,-1,21,23,25,27,-1,-1,-1,-1,-1,-1,-1,-1,-1,-1,-1,-1,-1,-1],"loss_changes":[1.4677419E2,4.3511642E1,1.5102005E1,1.8000793E1,2.0954252E1,8.568764E0,1.9530106E0,2.1550484E0,1.1744759E1,6.579979E1,0E0,1.4760857E0,6.9375134E0,4.8321686E0,3.968048E-2,0E0,0E0,0E0,0E0,0E0,0E0,0E0,0E0,0E0,0E0,0E0,0E0,0E0,0E0],"parents":[2147483647,0,0,1,1,2,2,3,3,4,4,5,5,6,6,7,7,8,8,9,9,11,11,12,12,13,13,14,14],"right_children":[2,4,6,8,10,12,14,16,18,20,-1,22,24,26,28,-1,-1,-1,-1,-1,-1,-1,-1,-1,-1,-1,-1,-1,-1],"split_conditions":[8.824452E-2,1.4285715E-1,1.5875359E-1,5.8623287E-3,8E0,1E0,1E0,1E0,2E0,7E0,-5.8515128E-2,5E0,8.5714287E-1,0E0,2.2344857E-1,-2.608927E-2,-4.6179265E-2,-2.7544225E-2,-8.856451E-3,-3.750297E-3,7.929134E-2,2.821461E-2,4.9508747E-2,1.0246017E-2,4.1907042E-2,3.307326E-2,-6.082819E-3,3.853705E-2,5.1593777E-2],"split_indices":[3,0,3,3,1,2,1,2,1,1,0,1,0,1,3,0,0,0,0,0,0,0,0,0,0,0,0,0,0],"split_type":[0,0,0,0,0,0,0,0,0,0,0,0,0,0,0,0,0,0,0,0,0,0,0,0,0,0,0,0,0],"sum_hessian":[1.7903641E3,1.2872462E3,5.0311798E2,4.4010687E2,8.4713934E2,3.2456378E2,1.7855418E2,9.084749E1,3.4925937E2,8.318191E2,1.5320246E1,5.5778095E1,2.6878568E2,1.2644635E2,5.210783E1,2.254897E1,6.829852E1,1.4239017E2,2.0686922E2,8.082396E2,2.3579433E1,4.2712193E1,1.3065905E1,2.5102972E2,1.775596E1,1.1831486E2,8.131493E0,3.690899E1,1.5198842E1],"tree_param":{"num_deleted":"0","num_feature":"4","num_nodes":"29","size_leaf_vector":"1"}},{"base_weights":[-1.662221E-3,-2.9496568E-1,2.6071993E-1,-1.0158082E-2,-3.7430942E-1,1.3629305E-1,5.9290606E-1,-5.3569525E-1,1.7471394E-1,-5.276577E-1,-2.4179503E-1,-3.2575123E-2,3.3249906E-1,5.075655E-1,8.6610174E-1,-3.0824749E-2,1.066296E-3,-2.862905E-3,2.5045076E-2,-5.0655886E-4,-3.169698E-2,-1.7871125E-2,9.854452E-3,4.968889E-2,-2.9189985E-3,3.5055734E-2,1.1804863E-2,1.87474E-2,3.3783093E-2,4.4906657E-2,1.5488043E-2],"categories":[],"categories_nodes":[],"categories_segments":[],"categories_sizes":[],"default_left":[0,0,0,0,0,0,0,0,0,0,0,0,0,0,0,0,0,0,0,0,0,0,0,0,0,0,0,0,0,0,0],"id":39,"left_children":[1,3,5,7,9,11,13,15,17,19,21,23,25,27,29,-1,-1,-1,-1,-1,-1,-1,-1,-1,-1,-1,-1,-1,-1,-1,-1],"loss_changes":[1.3682286E2,1.8966537E1,3.870675E1,1.796464E1,1.3213898E1,2.2673727E1,5.5154343E0,2.1785822E0,1.0381851E1,1.6687225E1,1.8036991E1,9.818223E0,1.1080605E1,4.1391716E0,7.799835E-1,0E0,0E0,0E0,0E0,0E0,0E0,0E0,0E0,0E0,0E0,0E0,0E0,0E0,0E0,0E0,0E0],"parents":[2147483647,0,0,1,1,2,2,3,3,4,4,5,5,6,6,7,7,8,8,9,9,10,10,11,11,12,12,13,13,14,14],"right_children":[2,4,6,8,10,12,14,16,18,20,22,24,26,28,30,-1,-1,-1,-1,-1,-1,-1,-1,-1,-1,-1,-1,-1,-1,-1,-1],"split_conditions":[4.83043E-2,1E0,6.666667E-1,8.978739E-3,-2E0,8.824452E-2,8.5714287E-1,6E0,1.6666667E-1,8.462576E-4,2.857143E-1,-1.2E1,1E0,1.3665001E-1,3.397857E-1,-3.0824749E-2,1.066296E-3,-2.862905E-3,2.5045076E-2,-5.0655886E-4,-3.169698E-2,-1.7871125E-2,9.854452E-3,4.968889E-2,-2.9189985E-3,3.5055734E-2,1.1804863E-2,1.87474E-2,3.3783093E-2,4.4906657E-2,1.5488043E-2],"split_indices":[3,2,0,3,1,3,0,1,0,3,0,1,2,3,3,0,0,0,0,0,0,0,0,0,0,0,0,0,0,0,0],"split_type":[0,0,0,0,0,0,0,0,0,0,0,0,0,0,0,0,0,0,0,0,0,0,0,0,0,0,0,0,0,0,0],"sum_hessian":[1.7759001E3,8.3848114E2,9.37419E2,1.8293967E2,6.555415E2,6.8299866E2,2.5442036E2,4.7113132E1,1.3582654E2,3.0250034E2,3.5304114E2,3.6752002E2,3.1547864E2,1.9603964E2,5.838072E1,4.1051556E1,6.061577E0,7.985862E1,5.596791E1,5.1725388E1,2.5077493E2,2.7957144E2,7.3469696E1,8.093675E0,3.5942636E2,6.410083E1,2.513778E2,1.1139024E2,8.46494E1,5.4621517E1,3.7591996E0],"tree_param":{"num_deleted":"0","num_feature":"4","num_nodes":"31","size_leaf_vector":"1"}},{"base_weights":[-1.5456094E-3,-3.0067173E-1,2.3533006E-1,-4.4668818E-1,-1.285246E-1,1.2256316E-1,5.901144E-1,-6.841857E-1,-2.9622656E-1,8.683536E-2,-4.1611716E-1,1.4208533E-1,-6.2474918E-2,4.91675E-1,7.7941495E-1,-5.7147196E-3,-3.7155177E-2,1.0312725E-2,-2.5920818E-2,-2.4905542E-2,9.607307E-3,-3.9651096E-2,7.880288E-3,4.5545786E-3,5.174461E-2,1.9560592E-2,3.5837647E-2,3.021883E-2,4.6563316E-2],"categories":[],"categories_nodes":[],"categories_segments":[],"categories_sizes":[],"default_left":[0,0,0,0,0,0,0,0,0,0,0,0,0,0,0,0,0,0,0,0,0,0,0,0,0,0,0,0,0],"id":40,"left_children":[1,3,5,7,9,11,13,15,17,19,21,23,-1,25,27,-1,-1,-1,-1,-1,-1,-1,-1,-1,-1,-1,-1,-1,-1],"loss_changes":[1.2488168E2,1.952105E1,3.927903E1,1.4842407E1,2.2262747E1,2.0203087E1,4.0325546E0,5.3720627E0,2.9079573E1,1.2787342E1,3.3390182E1,3.3506573E1,0E0,3.3059998E0,1.5465508E0,0E0,0E0,0E0,0E0,0E0,0E0,0E0,0E0,0E0,0E0,0E0,0E0,0E0,0E0],"parents":[2147483647,0,0,1,1,2,2,3,3,4,4,5,5,6,6,7,7,8,8,9,9,10,10,11,11,13,13,14,14],"right_children":[2,4,6,8,10,12,14,16,18,20,22,24,-1,26,28,-1,-1,-1,-1,-1,-1,-1,-1,-1,-1,-1,-1,-1,-1],"split_conditions":[4.353371E-2,1E0,1.3410251E-1,1.6666667E-1,4E0,8E0,2.0763007E-1,-1.1E1,2E-1,5.8623287E-3,6E0,6E0,-6.2474918E-2,2E0,7.5E-1,-5.7147196E-3,-3.7155177E-2,1.0312725E-2,-2.5920818E-2,-2.4905542E-2,9.607307E-3,-3.9651096E-2,7.880288E-3,4.5545786E-3,5.174461E-2,1.9560592E-2,3.5837647E-2,3.021883E-2,4.6563316E-2],"split_indices":[3,1,3,0,1,1,3,1,0,3,1,1,0,1,0,0,0,0,0,0,0,0,0,0,0,0,0,0,0],"split_type":[0,0,0,0,0,0,0,0,0,0,0,0,0,0,0,0,0,0,0,0,0,0,0,0,0,0,0,0,0],"sum_hessian":[1.7604805E3,7.778914E2,9.82589E2,4.200268E2,3.5786462E2,7.4662305E2,2.3596596E2,1.6152266E2,2.5850415E2,2.0502922E2,1.528354E2,7.370327E2,9.590317E0,1.576057E2,7.836026E1,1.5409743E1,1.4611292E2,7.92814E1,1.7922273E2,3.0711727E1,1.743175E2,9.200855E1,6.082685E1,6.982532E2,3.8779568E1,1.10861145E2,4.674455E1,3.8714405E1,3.964585E1],"tree_param":{"num_deleted":"0","num_feature":"4","num_nodes":"29","size_leaf_vector":"1"}},{"base_weights":[-1.5421325E-3,-2.7335635E-1,2.3880534E-1,-7.88668E-4,-3.5058063E-1,1.2067875E-1,5.609075E-1,-4.753678E-1,1.840091E-1,-4.615841E-1,-1.787029E-1,-3.6981095E-2,3.0625418E-1,4.7751248E-1,8.33127E-1,-3.4177046E-2,-1.4469969E-2,1.2406113E-2,-5.0366957E-2,9.812207E-4,-2.7637316E-2,3.6548052E-3,-2.5606722E-2,4.6441052E-2,-3.083626E-3,7.4074953E-3,2.615433E-2,1.8242566E-2,3.3091426E-2,4.3300223E-2,1.3536021E-2],"categories":[],"categories_nodes":[],"categories_segments":[],"categories_sizes":[],"default_left":[0,0,0,0,0,0,0,0,0,0,0,0,0,0,0,0,0,0,0,0,0,0,0,0,0,0,0,0,0,0,0],"id":41,"left_children":[1,3,5,7,9,11,13,15,17,19,21,23,25,27,29,-1,-1,-1,-1,-1,-1,-1,-1,-1,-1,-1,-1,-1,-1,-1,-1],"loss_changes":[1.14223976E2,1.7270226E1,3.5238712E1,1.6061792E1,1.2115715E1,1.991271E1,5.248451E0,1.7892475E0,1.0318318E1,1.7024445E1,2.1238037E1,8.848661E0,1.0637415E1,3.760662E0,8.1920624E-1,0E0,0E0,0E0,0E0,0E0,0E0,0E0,0E0,0E0,0E0,0E0,0E0,0E0,0E0,0E0,0E0],"parents":[2147483647,0,0,1,1,2,2,3,3,4,4,5,5,6,6,7,7,8,8,9,9,10,10,11,11,12,12,13,13,14,14],"right_children":[2,4,6,8,10,12,14,16,18,20,22,24,26,28,30,-1,-1,-1,-1,-1,-1,-1,-1,-1,-1,-1,-1,-1,-1,-1,-1],"split_conditions":[4.83043E-2,1E0,6.666667E-1,9.813398E-3,2E0,8.824452E-2,8.5714287E-1,1.963338E-3,8E0,8.462576E-4,4E0,-1.2E1,1E0,1.5066901E-1,3.397857E-1,-3.4177046E-2,-1.4469969E-2,1.2406113E-2,-5.0366957E-2,9.812207E-4,-2.7637316E-2,3.6548052E-3,-2.5606722E-2,4.6441052E-2,-3.083626E-3,7.4074953E-3,2.615433E-2,1.8242566E-2,3.3091426E-2,4.3300223E-2,1.3536021E-2],"split_indices":[3,2,0,3,1,3,0,3,1,3,1,1,1,3,3,0,0,0,0,0,0,0,0,0,0,0,0,0,0,0,0],"split_type":[0,0,0,0,0,0,0,0,0,0,0,0,0,0,0,0,0,0,0,0,0,0,0,0,0,0,0,0,0,0,0],"sum_hessian":[1.74642E3,8.1949634E2,9.269237E2,1.811449E2,6.3835144E2,6.79208E2,2.4771567E2,5.0327213E1,1.3081767E2,3.868362E2,2.5151523E2,3.6765717E2,3.1155084E2,1.9173227E2,5.5983402E1,2.248355E1,2.7843664E1,1.2488846E2,5.929219E0,6.1736866E1,3.2509937E2,1.4374411E2,1.07771126E2,8.2523E0,3.5940488E2,1.8114873E2,1.304021E2,1.20845985E2,7.088629E1,5.2381447E1,3.6019561E0],"tree_param":{"num_deleted":"0","num_feature":"4","num_nodes":"31","size_leaf_vector":"1"}},{"base_weights":[-1.4902E-3,-2.7913544E-1,2.1568976E-1,-4.2002934E-1,-1.1669455E-1,1.1062627E-1,5.5686736E-1,-6.617141E-1,-2.6958156E-1,-5.670284E-2,-5.4197203E-2,-1.1134148E-1,2.2414534E-1,4.6495014E-1,7.647108E-1,-4.727829E-3,-3.610422E-2,1.0609276E-2,-2.448322E-2,-8.778764E-3,3.919896E-2,-1.6431471E-2,3.091389E-3,2.556385E-2,7.850043E-3,3.9593875E-2,2.0434732E-2,4.080723E-2,1.3188302E-2],"categories":[],"categories_nodes":[],"categories_segments":[],"categories_sizes":[],"default_left":[0,0,0,0,0,0,0,0,0,0,0,0,0,0,0,0,0,0,0,0,0,0,0,0,0,0,0,0,0],"id":42,"left_children":[1,3,5,7,9,11,13,15,17,19,-1,21,23,25,27,-1,-1,-1,-1,-1,-1,-1,-1,-1,-1,-1,-1,-1,-1],"loss_changes":[1.0456795E2,1.737077E1,3.4817158E1,1.4628143E1,2.0533102E1,1.8801956E1,4.0163803E0,5.2575073E0,2.6893618E1,3.3639668E1,0E0,9.533296E0,9.431589E0,2.6415062E0,1.5527802E0,0E0,0E0,0E0,0E0,0E0,0E0,0E0,0E0,0E0,0E0,0E0,0E0,0E0,0E0],"parents":[2147483647,0,0,1,1,2,2,3,3,4,4,5,5,6,6,7,7,8,8,9,9,11,11,12,12,13,13,14,14],"right_children":[2,4,6,8,10,12,14,16,18,20,-1,22,24,26,28,-1,-1,-1,-1,-1,-1,-1,-1,-1,-1,-1,-1,-1,-1],"split_conditions":[4.353371E-2,1E0,1.3410251E-1,1.6666667E-1,8E0,2.5E-1,2.1220084E-1,-1.1E1,2E-1,6E0,-5.4197203E-2,1E0,-6E0,1E0,3.397857E-1,-4.727829E-3,-3.610422E-2,1.0609276E-2,-2.448322E-2,-8.778764E-3,3.919896E-2,-1.6431471E-2,3.091389E-3,2.556385E-2,7.850043E-3,3.9593875E-2,2.0434732E-2,4.080723E-2,1.3188302E-2],"split_indices":[3,1,3,0,1,0,3,1,0,1,0,1,1,2,3,0,0,0,0,0,0,0,0,0,0,0,0,0,0],"split_type":[0,0,0,0,0,0,0,0,0,0,0,0,0,0,0,0,0,0,0,0,0,0,0,0,0,0,0,0,0],"sum_hessian":[1.7321592E3,7.601236E2,9.720355E2,4.0620978E2,3.5391382E2,7.4419086E2,2.2784467E2,1.5454494E2,2.5166486E2,3.342418E2,1.967205E1,2.5181923E2,4.9237164E2,1.6022389E2,6.762078E1,1.5114631E1,1.394303E2,7.8927155E1,1.727377E2,2.9352808E2,4.0713715E1,1.1128464E2,1.4053459E2,9.206352E1,4.0030814E2,2.1602884E1,1.38621E2,6.0753765E1,6.8670177E0],"tree_param":{"num_deleted":"0","num_feature":"4","num_nodes":"29","size_leaf_vector":"1"}},{"base_weights":[-1.4568084E-3,-1.4786823E-1,3.7825903E-1,-3.8727123E-1,-2.7711019E-2,2.637084E-1,6.164706E-1,-7.9517627E-1,-2.85401E-1,-7.046344E-3,-5.7004012E-2,6.010478E-1,1.935229E-1,5.3805876E-1,8.3577543E-1,-2.2762997E-2,-4.494778E-2,-5.4310117E-4,-1.9259026E-2,-2.6423575E-3,7.20662E-2,2.4591826E-2,4.5287937E-2,1.2596175E-3,1.6180525E-2,5.970496E-3,3.0354708E-2,5.157978E-2,3.424029E-2],"categories":[],"categories_nodes":[],"categories_segments":[],"categories_sizes":[],"default_left":[0,0,0,0,0,0,0,0,0,0,0,0,0,0,0,0,0,0,0,0,0,0,0,0,0,0,0,0,0],"id":43,"left_children":[1,3,5,7,9,11,13,15,17,19,-1,21,23,25,27,-1,-1,-1,-1,-1,-1,-1,-1,-1,-1,-1,-1,-1,-1],"loss_changes":[9.5667984E1,3.571473E1,1.29045105E1,1.7015636E1,1.9024614E1,7.5812626E0,2.21146E0,2.4961357E0,9.133945E0,5.406672E1,0E0,1.4020367E0,5.917346E0,3.3032799E0,4.4507408E-1,0E0,0E0,0E0,0E0,0E0,0E0,0E0,0E0,0E0,0E0,0E0,0E0,0E0,0E0],"parents":[2147483647,0,0,1,1,2,2,3,3,4,4,5,5,6,6,7,7,8,8,9,9,11,11,12,12,13,13,14,14],"right_children":[2,4,6,8,10,12,14,16,18,20,-1,22,24,26,28,-1,-1,-1,-1,-1,-1,-1,-1,-1,-1,-1,-1,-1,-1],"split_conditions":[8.824452E-2,1.4285715E-1,1.6323385E-1,5.8623287E-3,8E0,1E0,2E0,1E0,1E0,7E0,-5.7004012E-2,5E0,5E-1,4.2857143E-1,4E0,-2.2762997E-2,-4.494778E-2,-5.4310117E-4,-1.9259026E-2,-2.6423575E-3,7.20662E-2,2.4591826E-2,4.5287937E-2,1.2596175E-3,1.6180525E-2,5.970496E-3,3.0354708E-2,5.157978E-2,3.424029E-2],"split_indices":[3,0,3,3,1,2,1,2,2,1,0,1,0,0,1,0,0,0,0,0,0,0,0,0,0,0,0,0,0],"split_type":[0,0,0,0,0,0,0,0,0,0,0,0,0,0,0,0,0,0,0,0,0,0,0,0,0,0,0,0,0],"sum_hessian":[1.7188042E3,1.2409336E3,4.7787054E2,4.1395013E2,8.2698346E2,3.2411697E2,1.5375357E2,8.136114E1,3.3258902E2,8.128887E2,1.4094838E1,5.451802E1,2.6959894E2,1.1580226E2,3.795131E1,2.0290127E1,6.1071014E1,8.895157E1,2.4363744E2,7.8890515E2,2.3983484E1,4.205811E1,1.2459912E1,1.1804496E2,1.5155399E2,1.6779106E1,9.9023155E1,1.3982153E1,2.3969154E1],"tree_param":{"num_deleted":"0","num_feature":"4","num_nodes":"29","size_leaf_vector":"1"}},{"base_weights":[-1.3414648E-3,-2.6544693E-1,1.9681542E-1,-4.0221152E-1,-1.0812826E-1,9.235352E-2,5.1013374E-1,-6.39066E-1,-2.5899786E-1,9.303221E-2,-3.84067E-1,1.0954111E-1,-5.9961278E-2,4.2410442E-1,8.0320346E-1,-4.528154E-2,-2.4651406E-2,1.0687162E-2,-2.4163468E-2,-2.45399E-4,3.2681875E-2,-3.8115796E-2,8.213366E-3,3.0401258E-3,4.651965E-2,2.4137845E-2,1.2907073E-3,4.186891E-2,1.1707261E-2],"categories":[],"categories_nodes":[],"categories_segments":[],"categories_sizes":[],"default_left":[0,0,0,0,0,0,0,0,0,0,0,0,0,0,0,0,0,0,0,0,0,0,0,0,0,0,0,0,0],"id":44,"left_children":[1,3,5,7,9,11,13,15,17,19,21,23,-1,25,27,-1,-1,-1,-1,-1,-1,-1,-1,-1,-1,-1,-1,-1,-1],"loss_changes":[8.9422844E1,1.5715744E1,3.190475E1,1.3112995E1,1.9019403E1,1.6411205E1,5.8081055E0,5.269123E0,2.6145884E1,1.0907838E1,3.00733E1,2.8934229E1,0E0,4.4412956E0,8.5845566E-1,0E0,0E0,0E0,0E0,0E0,0E0,0E0,0E0,0E0,0E0,0E0,0E0,0E0,0E0],"parents":[2147483647,0,0,1,1,2,2,3,3,4,4,5,5,6,6,7,7,8,8,9,9,10,10,11,11,13,13,14,14],"right_children":[2,4,6,8,10,12,14,16,18,20,22,24,-1,26,28,-1,-1,-1,-1,-1,-1,-1,-1,-1,-1,-1,-1,-1,-1],"split_conditions":[4.2302582E-2,1E0,6.666667E-1,1.6666667E-1,4E0,8E0,8.5714287E-1,7.6514543E-3,2E-1,3.3333334E-1,6E0,6E0,-5.9961278E-2,8.333333E-1,3.397857E-1,-4.528154E-2,-2.4651406E-2,1.0687162E-2,-2.4163468E-2,-2.45399E-4,3.2681875E-2,-3.8115796E-2,8.213366E-3,3.0401258E-3,4.651965E-2,2.4137845E-2,1.2907073E-3,4.186891E-2,1.1707261E-2],"split_indices":[3,1,0,0,1,1,0,3,0,0,1,1,0,0,3,0,0,0,0,0,0,0,0,0,0,0,0,0,0],"split_type":[0,0,0,0,0,0,0,0,0,0,0,0,0,0,0,0,0,0,0,0,0,0,0,0,0,0,0,0,0],"sum_hessian":[1.7066864E3,7.3145557E2,9.7523083E2,3.9045648E2,3.4099908E2,7.323548E2,2.4287602E2,1.4582349E2,2.4463301E2,1.976062E2,1.4339288E2,7.236402E2,8.714599E0,1.8965173E2,5.3224285E1,4.9772224E1,9.605126E1,7.872847E1,1.6590454E2,1.6906165E2,2.8544563E1,8.462624E1,5.8766644E1,6.8409564E2,3.954454E1,1.6512347E2,2.4528254E1,4.976419E1,3.4600968E0],"tree_param":{"num_deleted":"0","num_feature":"4","num_nodes":"29","size_leaf_vector":"1"}},{"base_weights":[-1.3613789E-3,-1.28296E-1,3.8309237E-1,-3.7473574E-1,-2.4829248E-2,2.720198E-1,5.9916955E-1,-4.142226E-1,4.1532922E-1,-4.7582416E-3,-5.764372E-2,2.2484246E-1,6.794665E-1,5.1728934E-1,7.91514E-1,-8.956802E-3,-2.400754E-2,3.9696757E-2,-2.9980812E-2,-2.8364474E-3,3.8699415E-2,-8.224469E-3,1.5814738E-2,4.0820073E-2,-4.6675745E-2,-2.0092814E-3,3.0191427E-2,4.7089763E-2,3.1903658E-2],"categories":[],"categories_nodes":[],"categories_segments":[],"categories_sizes":[],"default_left":[0,0,0,0,0,0,0,0,0,0,0,0,0,0,0,0,0,0,0,0,0,0,0,0,0,0,0,0,0],"id":45,"left_children":[1,3,5,7,9,11,13,15,17,19,-1,21,23,25,27,-1,-1,-1,-1,-1,-1,-1,-1,-1,-1,-1,-1,-1,-1],"loss_changes":[8.282652E1,3.2525436E1,9.947941E0,1.194046E1,2.036528E1,5.2310505E0,1.8301125E0,5.4900208E0,7.5678167E0,3.586181E1,0E0,9.042818E0,7.0725393E0,4.975397E0,3.3465576E-1,0E0,0E0,0E0,0E0,0E0,0E0,0E0,0E0,0E0,0E0,0E0,0E0,0E0,0E0],"parents":[2147483647,0,0,1,1,2,2,3,3,4,4,5,5,6,6,7,7,8,8,9,9,11,11,12,12,13,13,14,14],"right_children":[2,4,6,8,10,12,14,16,18,20,-1,22,24,26,28,-1,-1,-1,-1,-1,-1,-1,-1,-1,-1,-1,-1,-1,-1],"split_conditions":[9.5166065E-2,1.8507984E-2,1.667133E-1,4.2857143E-1,8E0,5E0,1E0,1E0,1.3742994E-2,6E0,-5.764372E-2,2.857143E-1,8E0,4.2857143E-1,4E0,-8.956802E-3,-2.400754E-2,3.9696757E-2,-2.9980812E-2,-2.8364474E-3,3.8699415E-2,-8.224469E-3,1.5814738E-2,4.0820073E-2,-4.6675745E-2,-2.0092814E-3,3.0191427E-2,4.7089763E-2,3.1903658E-2],"split_indices":[3,3,3,0,1,1,1,2,3,1,0,0,1,0,1,0,0,0,0,0,0,0,0,0,0,0,0,0,0],"split_type":[0,0,0,0,0,0,0,0,0,0,0,0,0,0,0,0,0,0,0,0,0,0,0,0,0,0,0,0,0],"sum_hessian":[1.6952405E3,1.274956E3,4.202844E2,3.7622708E2,8.98729E2,2.7908307E2,1.4120132E2,3.5877164E2,1.7455418E1,8.840044E2,1.4724637E1,2.515128E2,2.7570269E1,1.016281E2,3.9573227E1,7.939224E1,2.7937943E2,1.2871651E1,4.5837665E0,8.295691E2,5.4435272E1,4.768957E1,2.0382324E2,2.5868042E1,1.7022263E0,1.3728217E1,8.789988E1,1.7396807E1,2.2176422E1],"tree_param":{"num_deleted":"0","num_feature":"4","num_nodes":"29","size_leaf_vector":"1"}},{"base_weights":[-1.2823478E-3,-1.8564944E-1,2.4429467E-1,-3.719098E-1,-7.133962E-2,1.4212605E-1,5.1870656E-1,-7.689023E-1,-2.6652673E-1,-1.9364779E-1,1.2864208E-1,1.5912841E-1,-6.0454216E-2,4.2365962E-1,7.134079E-1,-2.1175675E-2,-4.3943126E-2,-2.4396459E-2,-6.471056E-3,1.7342597E-2,-1.3506748E-2,9.587102E-3,-5.25101E-2,5.8254073E-3,5.180457E-2,3.7221197E-2,1.85136E-2,3.843801E-2,9.939757E-3],"categories":[],"categories_nodes":[],"categories_segments":[],"categories_sizes":[],"default_left":[0,0,0,0,0,0,0,0,0,0,0,0,0,0,0,0,0,0,0,0,0,0,0,0,0,0,0,0,0],"id":46,"left_children":[1,3,5,7,9,11,13,15,17,19,21,23,-1,25,27,-1,-1,-1,-1,-1,-1,-1,-1,-1,-1,-1,-1,-1,-1],"loss_changes":[7.632469E1,2.0474316E1,2.0193161E1,1.5105137E1,1.4649639E1,1.2325675E1,3.3201637E0,2.523117E0,8.761711E0,1.54482355E1,1.7124655E1,1.940684E1,0E0,2.019024E0,1.6345654E0,0E0,0E0,0E0,0E0,0E0,0E0,0E0,0E0,0E0,0E0,0E0,0E0,0E0,0E0],"parents":[2147483647,0,0,1,1,2,2,3,3,4,4,5,5,6,6,7,7,8,8,9,9,10,10,11,11,13,13,14,14],"right_children":[2,4,6,8,10,12,14,16,18,20,22,24,-1,26,28,-1,-1,-1,-1,-1,-1,-1,-1,-1,-1,-1,-1,-1,-1],"split_conditions":[6.204923E-2,1.4285715E-1,1.4025117E-1,5.8623287E-3,1E0,8E0,2.1220084E-1,1E0,2E0,3.0237632E-3,8E0,6E0,-6.0454216E-2,1E0,3.397857E-1,-2.1175675E-2,-4.3943126E-2,-2.4396459E-2,-6.471056E-3,1.7342597E-2,-1.3506748E-2,9.587102E-3,-5.25101E-2,5.8254073E-3,5.180457E-2,3.7221197E-2,1.85136E-2,3.843801E-2,9.939757E-3],"split_indices":[3,0,3,3,1,1,3,2,1,3,1,1,0,2,3,0,0,0,0,0,0,0,0,0,0,0,0,0,0],"split_type":[0,0,0,0,0,0,0,0,0,0,0,0,0,0,0,0,0,0,0,0,0,0,0,0,0,0,0,0,0],"sum_hessian":[1.6837512E3,9.618704E2,7.2188074E2,3.649518E2,5.9691864E2,5.271361E2,1.9474463E2,7.523499E1,2.8971683E2,3.704092E2,2.2650941E2,5.2145685E2,5.6792912E0,1.3299614E2,6.1748478E1,1.933973E1,5.5895264E1,1.09818954E2,1.7989787E2,4.5481007E1,3.249282E2,2.1579587E2,1.0713551E1,4.9836902E2,2.3087809E1,1.7130243E1,1.15865906E2,5.5305855E1,6.442625E0],"tree_param":{"num_deleted":"0","num_feature":"4","num_nodes":"29","size_leaf_vector":"1"}},{"base_weights":[-1.2825637E-3,-1.4030278E-1,3.0851874E-1,-3.922504E-1,